125.96536410789216 1844.9793977181425 -44.65556521858868
-199.73637658115422 3484.7470473670223 143.9398217871339
3673.3368416106905 13940.399493307066 473.9651329618868
4289.026104555739 5354.975807698951 268.5926035231753
-80.4720229435492 -1485.0503692399432 32.22192698684313
1304.9851857450499 -4181.551936139971 -324.07740676754037
-771.9183942485805 -6549.155223446218 -329.0761730645995
-1971.5119133810852 -2834.161815211846 -157.40178406798466
69.42875223702055 2297.289010416174 -23.585246900091352
-1854.5139350984668 3160.5455122320313 333.9902926423479
204.17155426991113 4104.385773379598 237.46593540002783
543.9807520011914 2651.059666043069 221.39416901829324
-680.3311412695836 -2835.45897429807 81.31673182332607
950.7294808244217 487.37751439860773 -104.42556128274403
-287.98615222202557 -2118.466195435317 -89.89088982083739
292.24966528335403 -2329.1771149426213 -9.196383679329902
104.91566228499467 -3834.3662910705953 -135.69586564230613
-3840.048066924473 -15302.85219665191 -556.103738606819
-3715.6514526939004 -9424.250003455416 -645.4282872182581
175.00425993194781 3484.747047344224 -141.126673378797
-3683.9160429520425 13940.399493307934 -472.7869158252224
-4285.218201208052 5354.975807722462 -269.0202794963504
-1245.0510877360575 -4181.5519361448205 317.19591267312313
738.5928944307346 -6549.155223446453 332.79125893399316
1964.6483447881767 -2834.1618152186315 158.2388330999037
1803.541423568198 3160.5455122337275 -327.64515398215315
-289.9037655795568 4104.385773380705 -227.69347599447264
-511.5687934406285 2651.0596660449796 -225.10022182177818
-206.06478620964694 487.3775143994176 20.595518139134
212.6130744100627 -2118.466195436554 98.08319669773572
-121.46209674346643 -3834.366291005987 137.63514868294655
3839.2087824092205 -15302.852196654447 556.1918703555273
3715.6255232631875 -9424.250003487272 645.4346921069134
-207.36927149456994 1159.8621135774058 17.551786421474784
-139.5639195102216 1661.6832937316651 71.54620278620305
1005.6955947783555 5296.4753876868535 231.56098151271823
893.6046963999663 3971.5477058299293 296.52179143868995
113.55991747364277 1661.6832936856083 -68.59785432677435
-1005.3644536900039 5296.475387687988 -231.60653682189823
-893.4794601501005 3971.547705846197 -296.53319008773684
-13.667483630041525 99.64468316814279 1.7170392516087152
-12.622753600328167 112.62039809020918 6.354185679671005
-28.217757638349337 183.72416032671921 17.261628966222293
-26.090923804121118 186.4657033561904 13.808795330815224
-1.8845379562882714 112.620398095662 -4.756587664601051
30.25137239624496 183.72416032805856 -17.49484098151525
25.549787511474793 186.46570335307416 -13.745913829552629
-2.4693820215198197 12.017682560670428 0.2137812617445637
2.02362919661893 1.6783743222661711 -0.9113750053090982
14.681919776680513 111.56471065508633 7.584218445284947
13.914256104451265 79.64261458892948 4.0170047451969015
-3.0661970247554953 1.6783743241569007 1.0060689369983113
-12.065194147708638 111.56471065432262 -7.87623329521072
-15.504880990677538 79.64261458862914 -3.837008265792419
0.22319724161010326 1.1834642552393213 -0.024254777818958875
0.7747807914742328 -16.255748958616763 -1.4378064279486493
-1.468440345782074 38.015172171767894 4.897899476880609
-0.027167287540457954 10.46416425616369 -1.9904990238838625
-0.5695676329413507 -16.25574895894568 1.4141324418824501
2.880712177113467 38.01517217134235 -5.054513221554134
-1.7176115475427483 10.464164257015467 2.187936525700688
0.01773856976337471 1.6375207433497392 -0.001973084388719288
0.23452171343055866 -4.09273320567617 -0.6401057459636482
-1.6307114461733958 24.752125732486018 3.997770108922281
0.40464947922140043 4.562095379827271 -2.465000525243489
-0.3817630868044956 -4.092733205602277 0.6566483837146004
2.414080498749473 24.752125732351953 -4.085475600560589
-1.4169045079861944 4.562095379752209 2.5803607303089535
0.010801149781548648 -0.027410940227069344 -0.0012386132800662785
0.2508980898971621 -3.2454063751523297 -0.5617363884343005
-1.1681990424219113 10.877727384621085 2.787495358918952
0.7121964700980279 1.5121391304806966 -2.0988582406555913
-0.34548899746288014 -3.2454063753210005 0.5723088273103986
1.6892110574648582 10.877727384840334 -2.846259602484738
-1.2849794611686356 1.512139130593127 2.1643813608608404
0.00853828016828064 1.1535066561453604 -0.0009279840388347099
0.08634433606704442 0.0016580208899005325 -0.2135717753330095
-1.2992675539143121 9.505492437696226 2.7549109874536537
0.9281094446716812 7.367164685873345 -2.312529294346858
-0.13377530185624492 0.0016580208773283962 0.2190104143799365
1.7124315222639919 9.505492437699717 -2.801474221832207
-1.4790598754979865 7.367164685689594 2.3761433765426148
0.013174626925625862 -2.2752895634062402 -0.0016125160354924536
0.0231306076398145 -2.3094997567298066 -0.031057355601719253
-1.387905698319323 5.0296439609414305 2.661186829125675
1.2442616858107758 6.308086199876635 -2.5727435448666944
-0.01508630734958257 -2.3094997566349513 0.02992542617212276
1.7010911838531741 5.029643960761264 -2.696679521053327
-1.6901682461057494 6.3080862000642375 2.624293313343263
-0.01468829298118786 6.159380934407212 0.001967197662542719
-0.06686454151192017 7.392106346329577 0.06933180940859564
-1.6216434980779817 18.27870441000539 2.7802903352935546
1.0443902722677587 26.80108830796201 -2.108237012051345
0.01824513019678784 7.392106346472029 -0.06308237378912186
1.7491043103144492 18.27870441001293 -2.7932897464588065
-1.4810726921829727 26.80108830786723 2.1606369209451803
-0.01090384085462753 4.234270129969452 0.0014171222910065373
0.06052598372161627 -1.1989986395906609 -0.09649711655145121
-2.37077670880125 57.010246010794695 3.681591369263699
3.6783104300534 -91.81872264436046 -5.669218584685425
-0.06180140762564001 -1.1989986401518276 0.09649343644208064
2.1942463531103833 57.010246011641264 -3.6563504844075907
-3.3804400384266287 -91.81872264477445 5.626803775697658
383.57163202930127 12131.352301467841 -90.47048487071598
667.9738984595515 5591.325857901434 98.33063571931723
6789.544010413324 26731.33722825776 1121.0124347398453
6203.208071877277 11122.880074759352 778.6138355783489
2374.582682547085 -8291.542419634874 -323.193655452449
2932.770817996146 -7383.8652066535205 -682.4715849035443
-940.1450871177314 -16078.772480572648 -1045.1994000887084
-3535.6170121919126 -6806.2191118823475 -550.5972118432605
-4095.7612192636284 12052.80259417403 591.8668414113455
-5076.166952041002 6153.371553572365 964.5917294846652
-1395.645985886113 10325.404373555964 856.956053314701
992.6454188449607 5272.0978871837015 564.0987294394599
1850.392344281991 -7783.772301032795 -304.8895996698847
2752.2376197385543 285.0211981185867 -380.16475080317076
722.4298923918599 -4455.665210134224 -338.2452605145684
-826.9617676161953 -16119.36392136475 164.93983630910583
-1533.8189187298058 -7669.100935271855 -67.35672321449886
-7090.958561343414 -26508.93568975824 -1093.377792427245
-4882.649861451659 -16725.86696782961 -1396.3859809737621
-726.1719337209015 5591.32585785962 -91.10401384664162
-6795.2502797479165 26731.33722825654 -1120.6687866495386
-6202.855945414258 11122.880074813946 -778.4775817458474
-2863.617085025416 -7383.865206664274 674.5167222320898
914.8089592808736 -16078.77248057299 1047.3091225218839
3572.0558500954517 -6806.219111898466 544.8567561005626
5549.71170708928 6153.371553576441 -1037.5321439544416
1463.384558254894 10325.404373558455 -871.309311308472
-1024.334762747583 5272.097887188011 -557.7727468384847
-2955.9680957899477 285.0211981198736 449.07358718682497
-878.0918142887548 -4455.665210136718 357.355751075502
1507.2363722441721 -7669.100935148819 70.60609217635734
7090.319665857278 -26508.935689759077 1093.4366118144433
4884.3858600537715 -16725.866967901624 1396.126295576522
197.48881482198738 6515.458069001545 -45.71576536556952
438.3860727301137 3732.598637358778 76.19199173587683
1956.7712912685915 8887.654089522774 421.598134392454
1138.9919893355898 6746.586111809405 594.7007515627449
-461.01825135068333 3732.5986372704274 -74.02422489066034
-1955.4712904265293 8887.654089523507 -421.77053276188497
-1138.0820345180268 6746.586111845074 -594.8312014358943
-11.910529936319408 295.5086259116715 1.3654131909172882
3.5728390240591623 311.8572177057613 9.991131069814259
-33.125112313030144 297.17290814447637 29.75259866614824
-27.66678319879799 279.23234911132215 22.464500478004876
-8.840507246777724 311.8572177159453 -9.908204736939547
35.385153040197125 297.17290814671753 -29.988382852566293
28.100176432409796 279.2323491046197 -22.55699244512238
2.7158618633778917 80.4651785448947 -0.588647680038588
13.386609451160204 20.641134705573467 -2.919681448374231
26.433785333321662 177.17714047065243 14.785759848984867
21.867807454182177 129.86519594248924 6.943144654908731
-11.353956409944555 20.64113470945066 2.5503339129424076
-24.735940128432425 177.17714046940262 -14.90913534785105
-21.740524418722675 129.86519594208957 -7.041874286741268
0.18257953865099208 -0.9911226296788842 -0.015103375253611773
0.5265763937883545 -29.98378165085479 -2.8078531540362084
-1.363680793576407 60.512313417922705 10.134891061689757
3.4003695767976043 21.24692943362444 -4.794492105658285
-0.31457336052139584 -29.98378165158354 2.7848609250923455
1.978627520574224 60.51231341715428 -10.154404829386024
-2.593390896410662 21.246929435221816 4.587159483597784
-0.0015282732197069754 2.6906252420083243 0.0011047131035033203
0.008961961688018967 -6.6095842401750655 -1.3033641161632041
-0.40855768936133485 40.41934711597452 8.135729822637453
1.540647221086558 10.566342240730783 -5.3558381134814805
-0.05529464588070144 -6.609584239989932 1.3027950035992644
0.5342820946858637 40.41934711566022 -8.114346024407485
-0.591933278882244 10.566342240626577 5.164138648613351
-0.009718233587437768 -0.10053711285626031 0.001983442345624601
-0.0508822572533963 -5.28989870970826 -1.128636582171566
0.14511345047624846 17.136071740595984 5.637633224468242
0.3868362295288195 4.17553197401375 -4.360195738758985
0.032491233379691696 -5.289898710041967 1.1265140413662682
-0.28191700603180303 17.136071741047413 -5.590853637520687
0.2654215546255111 4.17553197421359 4.234611885562381
0.0157622179331731 1.9141926785562235 -0.0018897397191818726
0.005210163395061073 0.12834759785235736 -0.4359549543591834
0.5563073680835213 15.050934935160543 5.499252169232508
0.08977581401043222 14.126703672620486 -4.741095416646567
0.05420041821679375 0.12834759764000536 0.4247627720234052
-0.6484832682437458 15.05093493532925 -5.46451764910458
0.8585390709858042 14.12670367221943 4.572888272023124
-0.07200996511456519 -3.934634630142712 0.011305063439398882
-0.07811545548224663 -3.939376339366814 -0.04945131555315674
0.8502555731259634 7.6794423094896755 5.255343931298372
-0.45122906956542286 12.043827810047572 -5.162127313172092
-0.04546755185296619 -3.939376339218887 0.06810623160648442
-1.0268090310237064 7.67944230920958 -5.213243532815371
1.254343089395574 12.04382781037753 5.0207076629652345
0.1719674006780869 10.523999507635256 -0.02613758123447279
0.25103625542097824 12.671562298167826 0.09436740160828795
1.591047954026658 30.66246317997979 5.35567190933682
0.03786023959053831 46.76146540629242 -4.298677777797458
0.17649118870065203 12.671562298448764 -0.15996939565567206
-0.8810098277225479 30.662463179991853 -5.453955317236394
1.785710965597396 46.761465406111064 4.007084326326122
0.10455987220069919 7.275555263406075 -0.01599734450022416
-0.09128585974645405 -2.002521324046439 -0.17995553042772897
3.2893106556377503 97.29147632301044 6.863293798399204
-5.288097216172501 -156.59611960948976 -10.53184176080484
0.012242997174336625 -2.002521325197028 0.1915519066128849
-0.35584481894985015 97.29147632472676 -7.3053918885921485
0.4354659429027711 -156.59611961032354 11.263442523974064
-1682.773716682458 4994.602678712773 267.7749477844531
-235.90344007743352 5032.959293562561 358.93487405247873
-974.7445310996477 7869.335127868779 852.4460363308286
2317.8730366135774 -2210.7658248858274 -51.75892562307104
1550.2025296799345 -7121.251038989585 -231.14425470888332
2005.9852050506893 -4534.026988584174 -490.8518190682791
2384.4056924799033 -13229.386722828383 -1318.2222824024127
-4382.177407809386 4709.327813791767 770.3148161727232
-1577.2380088385403 12077.743592231773 237.61075853497752
-2407.0538826943975 3222.829193794129 453.8183780108441
-2275.620276262731 15551.381635360158 1463.8777131041184
1566.5229168342114 -964.7146589004873 -251.37792580714265
-1399.322876545256 -6408.822570463082 173.48166392646783
1498.7570000451592 -130.25430427113506 -193.1432014917766
325.4206729358065 -6237.45274486781 -506.9857434566944
2674.5860029917153 -7468.312914043041 -402.02313888320333
522.5667015818458 -6868.861585148599 -472.24753359532144
1342.5919124395 -7458.470544814988 -877.853955641711
2489.750775761394 -5427.012669369369 -1107.6379139912017
163.52817831743064 5032.959293556268 -349.9081680831221
936.816889417423 7869.335127867992 -847.2055184403038
-2305.4662635082937 -2210.7658248700195 50.08234719129711
-1783.4414069695654 -4534.026988588106 459.5671564347605
-2500.480211869787 -13229.386722830657 1334.0533324672133
4374.903522494755 4709.327813787555 -769.6604902597829
2414.715626307109 3222.8291937942236 -458.56137532219026
2032.6788924474438 15551.381635364285 -1431.9792119205742
-1477.1476004882963 -964.7146588995981 239.70467966078996
746.8536871896395 -130.2543042700669 -103.7789127749622
-618.5773419057398 -6237.452744870031 547.2564979818059
-575.6560655578663 -6868.861585119928 479.3693241848564
-1346.6688714595152 -7458.470544816398 878.454238263539
-2489.002267628035 -5427.01266939173 1107.5159447691183
-1128.9925310642363 3468.6774092735295 164.24362957246032
-540.5353909516421 3130.961376688181 230.21037324650277
-889.8758658021842 3245.7758938525863 385.426704635513
-1742.6342103099732 3456.1968530826507 576.2860354386545
451.04684497618956 3130.961376665355 -217.97116848103175
889.6401326244206 3245.7758938555967 -385.33798631292143
1743.67570855667 3456.1968530961362 -576.4457809086983
-35.57680839739191 225.0126597692053 4.679661544996619
-79.40369647765722 208.48027457900693 17.58169209894778
-130.27965853526334 274.93451480665254 34.57430031618306
-118.99521866899667 253.15440369673232 30.660430007312407
25.602237592572514 208.48027458146697 -10.084290638454975
136.56119947460394 274.9345148060913 -35.40089157673738
117.70511944425921 253.15440369188445 -30.501447719483977
-13.270007957935066 42.25139154240127 1.9368172455492052
1.927788001651789 18.041121750900004 0.7552058528395328
-30.203622850903113 68.61881318757887 10.430336902036332
-29.97558895054197 71.93217566165494 9.773612198289799
-7.381874921779049 18.04112175225513 0.051451305879431884
39.28822591965472 68.61881318734062 -11.670786589367944
25.103561391541156 71.9321756629309 -9.12570926455819
0.8160875230177268 -2.895154701958162 -0.11171351290775773
7.217606163942235 -14.911920971561269 -1.7925621935392924
-15.517560786626909 14.650158366192239 3.8168061756883436
1.7506512008385235 16.22828669628309 -0.3795090225904696
-6.510754024843978 -14.911920971783074 1.695215161505204
20.38057861982951 14.65015836597399 -4.478982043473788
-6.994924881510668 16.22828669658985 1.076736168009951
0.06020812004926347 0.9772946435286077 -0.008238457519771588
2.0891061240504962 -1.6399721002383623 -0.5214041570708087
-13.346462467724866 10.867053368952922 3.301189973892792
6.222833657184923 7.620144335952022 -1.529305408887308
-2.5634423171613707 -1.6399721003751058 0.5849989843995713
15.871479703776412 10.867053369066221 -3.6400321050650915
-9.064708733988944 7.620144335832803 1.9020864852455357
0.02935443586958575 -0.07289690414645594 -0.003812091546689351
1.881760927985636 -1.369202340758953 -0.4659373636436854
-9.16445432742742 3.8995065900023613 2.272088363342814
6.407161342905118 2.7623380607979717 -1.5963694525476169
-2.1887949918575638 -1.3692023408544218 0.5071849336010698
10.755182159557657 3.8995065900960055 -2.4836554550388104
-7.961998515251494 2.7623380609550927 1.7988671341890403
0.03309103891169987 0.46258196046682015 -0.004554093885676132
0.6984055667971918 0.07085928164742367 -0.17389527532342475
-9.288604475405428 3.4387480292715544 2.2950768653898983
7.448563428852658 4.929290776560884 -1.8539956293068285
-0.8249305823818949 0.07085928140621492 0.19032020329575755
10.554487382224938 3.4387480295778694 -2.463466121557177
-8.820633708588783 4.929290776246921 2.029630083312408
0.014017801715913722 -0.9753039525855223 -0.0012945676404126439
0.1006963489086777 -0.9418674971066736 -0.02486946881629079
-9.223487208616234 1.62112089451967 2.2662297967384313
8.737873716626996 4.040872696555162 -2.1583498815349524
-0.122400758999105 -0.9418674971010731 0.028756104843545658
10.141151023939758 1.6211208944334292 -2.387354616362317
-9.833396817747907 4.04087269674324 2.2981409990319666
0.01917507058964491 2.4962980105055848 -0.003934509399391839
-0.24082253379129748 3.042240510825924 0.056649942110056285
-9.853974770101537 7.269363581551207 2.402052795947027
7.403781258457882 12.04811751653244 -1.8230844719998809
0.25051137977667387 3.042240510944691 -0.061363965878210344
10.524413521720538 7.269363581649757 -2.4972389007798688
-8.08200571211282 12.048117516318722 1.8989757528353475
0.005626450574899759 1.9550675356007632 -0.0015967447343495855
0.33992039691917186 -0.30315752779099864 -0.08316176192105328
-13.237523105360022 23.941448236022165 3.200498301710448
20.369692409881498 -37.69354734390079 -4.925114680109294
-0.37369660858927695 -0.30315752821233105 0.0882875414689824
13.798438380589586 23.941448236562003 -3.2988995551173588
-21.27785960108784 -37.69354734408862 5.0851835143256165
-568.2020673267605 1045.3657502119022 67.10726811902649
-295.903167933077 759.8628027625713 30.759036132737236
355.9285367784225 -598.4608882815686 -89.00816198685328
941.0606246734632 -70.96985514706843 -66.9377437429821
1058.6848554804133 -1203.053646376113 -143.157342906905
747.0551481839448 -622.7114879070999 -107.46618908540277
-1722.5952462995808 1737.7967828482208 319.8282147423037
-1769.9977852129489 1228.3540882018935 313.3670036753147
-615.3884829995767 1583.0851939145741 101.00148753000215
-257.3897161609393 686.7235059479623 42.68285522716806
3622.884783446357 -2954.334506322232 -590.4028319317551
517.2661464298017 -10.640473073997848 -84.30054768093117
-842.3612335769105 -978.010277621045 100.1412581663798
274.7434693402435 -608.709086871578 -43.60089980784356
-2852.7902271841226 1982.2609498751503 440.16852450088254
524.4721695476587 -794.0934207305828 -66.06384673361673
426.9322632509957 -812.3944112095386 -53.52697969626862
1102.8548732711454 -735.9655903504747 -183.59289512829858
2192.637834502032 -3264.7292762802304 -527.6667341618162
234.86308108921702 759.8628027669826 -22.66474288964122
-366.0497158092245 -598.4608882812033 90.45260943662807
-936.3636608222961 -70.96985514971117 66.3046347862804
-720.9832102333769 -622.7114879079671 102.77939100057881
1682.3505618225945 1737.7967828485412 -314.23884823444354
1758.4282689318413 1228.354088202427 -312.1121401847153
156.6710692898352 686.7235059481399 -32.96468916032533
-3743.7370330305334 -2954.334506322583 605.9272182127282
-471.16765679803046 -10.640473074114007 78.42468507095276
836.4138092844983 -608.7090868716401 -101.22111049913958
2747.8140704550738 1982.2609498753 -425.1928902716014
-446.0044026335264 -812.3944112159933 56.27181306518837
-1102.6160867628187 -735.9655903512759 183.58603922803275
-2192.982144558887 -3264.729276275498 527.6960921227079
-229.05229553817196 290.2529211477329 30.769629085674026
-367.87946858134524 380.9732838538114 53.795692948615496
-909.2338040011409 752.8392584461022 156.40776495662197
-1447.0967129987496 1802.4403915190962 299.2808553892151
340.9516833412571 380.97328385680237 -49.95365393602777
911.2191116150095 752.8392584462609 -156.6568208309015
1446.855196288479 1802.4403915156474 -299.26105599026255
-9.364928998138144 14.328228260511652 1.4259244186547648
-44.956459669524875 21.551273388617254 7.158660239727706
-122.40167032718689 126.05645721950717 22.0692348377513
-107.82535099517841 108.07748634521867 18.521821921889153
32.52122118458468 21.55127338864186 -5.3631023666821465
125.58266429519487 126.05645721976964 -22.499974243591577
106.80858202680704 108.07748634677561 -18.39394945379107
-2.178836181319448 4.400694051038614 0.29821940651657897
6.652650831729863 -11.098214423984267 -1.3836177361696775
-32.256300644736996 38.718009469197 6.1806796257040695
-27.44431347339218 34.696198328491384 5.160782273354582
-6.831279707234308 -11.09821442426697 1.415129514995744
35.31299997153556 38.718009469100416 -6.60534295874617
25.23183466892248 34.69619832780718 -4.86864149339418
0.2999829858979354 2.823098137605927 -0.04122576292079793
7.4117439157610745 -8.943449093768596 -1.3569328519547375
-21.51054771146101 25.067928815464494 4.090145111423059
2.69219664741711 5.742402417086061 -0.8173401040701674
-7.249556829461679 -8.943449093681068 1.332421208021434
23.26869030636674 25.067928815472566 -4.330362049580887
-5.047219657619572 5.742402417154034 1.1248810573110661
0.019250620709367672 0.9651755655015213 -0.0026196265414965003
2.999762933690872 -2.6144439650924793 -0.5532867641353864
-18.87398718060732 15.597120759191869 3.475062240992661
9.083099477369627 2.599914050176655 -1.802054195699896
-3.202629752896028 -2.614443965086778 0.5805008091408017
19.951646587909078 15.597120759179969 -3.6189057155851145
-10.505366395848613 2.5999140501788554 1.983825148201642
0.015909259129296277 -0.0156011922040182 -0.002027957314726889
2.822979159702847 -2.0440046235811273 -0.5096751682652044
-13.81412211629879 6.832318757572888 2.503266593647741
9.72455955040997 0.9848817703063053 -1.7956748822294808
-2.9531816022188737 -2.0440046235141933 0.5270770398336864
14.541527477801349 6.832318757495061 -2.5986824525402437
-10.544097053027754 0.9848817703163115 1.8994805676670408
0.011402983198090796 0.7424379009773863 -0.0016261945687544128
1.0644717153178056 0.022268939069596767 -0.1927733799579498
-14.42088589894863 5.991112756286333 2.5725474904883043
11.634003491925903 4.820453695838065 -2.100646148772119
-1.1323618410964496 0.022268939143642228 0.20133488044748996
15.001521724382359 5.991112756204541 -2.6487762377512967
-12.433996537166708 4.820453695894436 2.199678506101789
0.020445996353051884 -1.4962117204315204 -0.0021853683975522295
0.18691221184921772 -1.515779443551573 -0.031559133774519355
-14.637358664193455 3.1500286207949224 2.5774075142061066
13.9165374664631 4.11762018478014 -2.4639337804856587
-0.17240760147147136 -1.5157794435204044 0.03053194648089362
15.08269359759287 3.1500286207797594 -2.6350745325660903
-14.567696501730277 4.1176201847548235 2.5442781557389185
-0.025075397306736864 4.052770517101045 0.002077235478402519
-0.43522909674235527 4.862027865986496 0.07189150711700365
-15.896593235594915 11.900528255682007 2.7670177879804223
11.738644451957585 17.56736298864081 -2.069524253092198
0.35569235164531243 4.8620278660518546 -0.06445343015515971
16.05820643598091 11.900528255557642 -2.7935290236073067
-12.403831081191974 17.567362988729254 2.1443454040602474
-0.01841151053996591 2.7259505758296583 0.0016766456467755353
0.5709662749189847 -0.8310371930558762 -0.09835656823211188
-21.600025459152487 37.23014774430358 3.725167139231181
33.37690785084272 -60.19416690640818 -5.749983741305557
-0.5713527277953486 -0.8310371929538214 0.09897003852355767
21.273971679382328 37.23014774419324 -3.70322597956947
-32.83228377052625 -60.19416690637942 5.712951900592275
4.25530037033515 567.5596748937619 -24.37376290309999
-146.58074480950123 416.36106992077873 -4.312959520725613
-49.35476948121972 211.72595639832468 -13.571576662555175
1498.9618872475182 -349.44634179313977 -173.74616484990904
251.8644471870963 -157.7574972915941 -7.141171412676639
277.69701216930235 -62.20008254587004 -13.158066924122984
-160.76019987596752 23.189360860776524 49.29251615978421
-959.8962115008326 347.76636760043596 150.72053983651332
-82.16513861838827 280.3195747708033 -5.047758958318597
170.1200766398646 -24.389901915310606 -35.4154681618831
1286.1449233027795 -714.1391709811414 -210.36620191528465
248.326030397072 -23.500891859065128 -59.08394957958642
-415.8728285963967 -313.22367812280066 60.59649602606838
-112.8282666765824 -90.54108297659272 13.801070324382932
-1246.749226536383 665.8028481034297 195.19347954782427
8.803451653252617 -607.4875375120865 9.201247736637448
108.04692994216445 -446.73291585587697 -3.66686257120224
224.64231703769912 -252.71530884952074 -21.330314618035285
-383.6253316033927 -391.0533376298159 14.125145293780614
120.32998892560906 416.36106992110297 7.519664827633247
45.70375509078156 211.7259563987143 14.16031282438594
-1497.0814463695901 -349.4463417927934 173.47388524107018
-270.5739770245908 -62.20008254605863 11.06308129022823
145.34464403673883 23.189360860834064 -47.03951286855184
953.782284210611 347.7663676003111 -149.89898710477297
-227.13960531268393 -24.38990191532989 42.82912675398904
-1338.319248382261 -714.1391709812452 217.6117597977981
-228.19599437956558 -23.500891859067476 56.294258048360724
578.9994293545169 -90.54108297654692 -77.23663397194328
1208.8335082043852 665.8028481034664 -189.95592520760866
-115.95159113755544 -446.73291585572866 4.874200854304803
-224.37920041206934 -252.71530885028272 21.317120215776406
383.40123865135536 -391.0533376298295 -14.09902646332878
-37.8050115299706 183.99701240127416 4.302180727117163
-115.14243845388782 151.10567228653088 14.942612550214287
-247.33786277309434 160.16766800619374 32.04394447662788
-210.40376776375865 318.36662667449036 39.05653856738198
104.82372368106968 151.10567228611265 -13.324260477049437
248.3156115862077 160.1676680065917 -32.15587708726065
210.23591037350775 318.3666266741179 -39.04011432786015
-4.747339490369015 1.2400923416567222 0.8989857084373224
-13.453946006522694 1.7740605248300816 2.2588827607901076
-40.05595766657992 25.322645104908474 5.582493466602542
-45.33463367941235 26.31031441081621 5.951709566909614
9.270876132131837 1.7740605249674273 -1.547281917151858
41.39463824233963 25.322645104889347 -5.764787056430524
44.87219861274068 26.31031441110844 -5.891620584937889
-0.2396547958425544 3.418424134823879 0.03326716694033218
3.838509252555739 -1.8189769026480411 -0.4505939433600077
-9.519730595040794 8.993043471864686 1.1571681868428918
-5.966987080601959 6.870515605546658 1.0303029875497922
-3.6423110068382933 -1.818976902675228 0.4377325707815736
10.68842576293578 8.993043471869589 -1.3301118606629958
5.04423129991519 6.870515605404136 -0.9016280368798795
0.11155196005350156 0.8582991567434931 -0.015491815898286139
2.8702120589963336 -2.2197177447097953 -0.3489483289466347
-8.780917479866448 6.605411881047189 0.9665530069259806
0.8580831849905107 1.8255429868543276 0.040141391351548684
-2.809466327291243 -2.219717744691884 0.3380000075352159
9.458879415330108 6.605411881032764 -1.0640577833968186
-1.8466959696897394 1.8255429868789839 0.09874986572047371
0.007368594955982293 0.2424330498704417 -0.0011143765865641354
1.2447774185014346 -0.6926036715498911 -0.14137122909191827
-7.859436678703298 4.103246223025265 0.8944522468643765
3.652035423119243 0.9773483269073152 -0.361802266415994
-1.3271739154236295 -0.6926036715568092 0.15287990449055125
8.29602706500654 4.103246223031417 -0.9553121470481233
-4.268017495468766 0.9773483269013363 0.4473609844123601
0.006990840415000604 -0.009874521029350476 -0.0009606759347388317
1.1943596524302984 -0.5440498305879712 -0.13897283883168207
-5.829781993785799 1.7622766022877578 0.6744668529299367
4.066913002568858 0.4385156826768186 -0.457147589661206
-1.246889227734758 -0.5440498305804234 0.14628929588293718
6.133000178572028 1.762276602279336 -0.7165974263572764
-4.426773581316841 0.4385156826795351 0.5069060540323158
0.00409131786349649 0.2062639279184717 -0.0005729861374868476
0.44954369044965486 0.022953117149067333 -0.05209845415573979
-6.155832824841309 1.5716070515154634 0.7259125686215147
4.933983697055968 1.5246722718858317 -0.5730495767099013
-0.47956653828788715 0.022953117184197683 0.056251645328918014
6.397482476064175 1.5716070514744243 -0.7594144440385533
-5.296606066555255 1.5246722719061354 0.6230641307135621
0.010982553321785537 -0.43764226461166705 -0.0015049905568538524
0.08355041437467986 -0.4384426285905692 -0.010277801568782358
-6.30586146128688 0.8043781698531238 0.7554654741994227
5.9777056153049415 1.2880670456685008 -0.7120738483602292
-0.07316465684409881 -0.43844262857637073 0.00886531255809834
6.495155981325323 0.8043781698425814 -0.781642211500942
-6.274154784726484 1.288067045664153 0.7529061501236252
-0.016457381375240814 1.175927328541542 0.002243581547633686
-0.19673415652102735 1.4134415367213982 0.02446829553102684
-6.9048725785881375 3.381172568802881 0.8369496074741971
5.051036802354639 5.155821088226486 -0.607199846477219
0.14874474213343278 1.41344153674363 -0.01791375978684136
6.945888761621362 3.381172568759045 -0.8427688562028508
-5.389825424958764 5.155821088258289 0.653669164007543
-0.011328040810171833 0.7807499466231052 0.0015401240736227896
0.2503808752792016 -0.24696899966795616 -0.030658049396253863
-9.443554351564153 10.731508031062337 1.1531874470694512
14.606937786509828 -17.395547100625336 -1.7854373195774695
-0.24774476761853226 -0.24696899966174202 0.030298162726083783
9.20447058615308 10.731508031060661 -1.1207291399551857
-14.209441913669865 -17.395547100631816 1.7314134668915848
30.23185096430338 445.11721804072886 -3.2968815634988107
40.210097641719834 182.98078153593272 -12.268233462189778
108.33903649743984 164.23193533171195 -14.846819942722655
110.97857076257586 315.0287930211781 -16.753882361950183
19.102307577996495 -153.73156517399204 -6.8493735016564
-41.593206963864326 87.88069753515559 2.707037545395289
-146.96660066064172 -82.83929529439278 10.823778244007789
-22.74169264471442 -66.74140314121753 9.70233596452012
24.482396780957306 -18.587999570198537 2.819859272969219
99.27920904399271 -58.51340044877684 -4.593404261950264
182.93628428220802 108.57378772258002 -13.355785960952394
4.575096680798086 5.277127896126386 -4.873428721512147
-59.78411556916361 66.67429051145432 5.731369426499736
-61.49401380926862 -12.597760054384494 3.806499305884463
-87.39402453563764 -63.52938773009249 7.052012991079029
-51.647348509058084 -472.81843049552214 7.021377616919338
-49.17522317638975 -321.6470617345265 13.949642544188226
-79.02415656928875 -207.09025422822342 14.749066113180472
-121.04644519456676 -352.03163103921656 15.870010395184558
-44.014110655018804 182.98078153575574 12.875171335703216
-108.22564132980663 164.23193533182257 14.842640123806937
-110.86522910112555 315.02879302173864 16.73663414433844
37.699486940826645 87.88069753505515 -2.276035850413207
146.4202958666154 -82.83929529444359 -10.703048930050597
21.526953203676452 -66.74140314143612 -9.58496400648992
-112.70144777779944 -58.51340044872391 5.792812258928077
-188.5996740984658 108.57378772262173 14.064083010726804
-2.2775511951538103 5.277127896186346 4.592802548097675
109.68969752438535 -12.597760054390879 -10.384848050011282
86.39550943285414 -63.529387730115154 -6.670296030444562
48.80613944618139 -321.64706173385923 -13.861906298798116
79.17603593744205 -207.09025422837246 -14.76854589391281
120.9774850583312 -352.0316310398116 -15.863004327138443
16.10441737384749 141.00483950297246 -2.1475626877400003
14.139176527446924 114.5083619456662 -3.761714308247014
18.042358949080047 67.5125076444581 -4.158262578198676
33.51825213959071 103.60010334637643 -4.39104245155959
-14.200839033227636 114.50836194514791 3.80732853706741
-17.83199979219184 67.51250764450693 4.127886170204957
-33.58020648832943 103.60010334660738 4.3981807223437634
-0.10488941788497497 2.0417939141025063 0.026211563457323176
0.13788588014331019 3.2450851731963426 0.03341713708512966
-0.2063262831142333 2.735100897838026 -0.02904826931891903
-0.6844489266488134 -0.5045327472784527 0.03999658733031835
0.2252327995718479 3.245085173267024 -0.07027579825383445
0.3404378671712406 2.7351008978822353 0.007172479488321213
0.6146869259371734 -0.5045327473231311 -0.030912560971605767
0.23357065878574637 2.3286018655484915 -0.03202773895142226
0.35816420775715024 1.918628408994693 -0.06653805519526373
0.35237820531189146 1.473654715083616 -0.09946951541821934
0.34431039718585676 1.2803520229396692 -0.04928541724428806
-0.1998243362970685 1.9186284090136727 0.04341435388439592
-0.3171575447406636 1.473654715051473 0.09144907240474019
-0.42874540151647395 1.2803520229430276 0.06116031540914727
0.004698289960288046 -0.10396550431421163 -0.0009977440931533224
0.027973146189115016 -0.07714195820361927 0.003847201918544772
-0.13463714814030908 -0.14840604596437637 -0.020640641671879945
-0.06323029590361787 -0.18404391318713037 0.02417869021603923
-0.03215898645518943 -0.07714195820817843 -0.0035906120305061497
0.16577886309718795 -0.14840604596260645 0.015001092679226748
-0.028278968852219047 -0.18404391317860153 -0.012197632872255526
0.00018540730484232717 -0.003955087295695929 -2.989958493680307e-05
0.021367189872335695 0.009822258370630388 0.002479884802855584
-0.13913217027007221 -0.06683287296448072 -0.014115679247036888
0.026650556827031255 -0.12893409876863263 0.016560112182753287
-0.027880251817131843 0.00982225837613248 -0.0014765459662898432
0.17375274909193789 -0.06683287297275627 0.00892918642201685
-0.0945011627997338 -0.12893409876605597 -0.008260094358108195
0.0008334257748198826 0.003402581766228458 -0.00010379613005507587
0.024857994695735994 0.012268463086543 0.0015362631790294967
-0.11671449036480769 -0.015791264946555677 -0.008557298555621696
0.06722998422041472 -0.07858760963772231 0.008948320646384138
-0.028945273314812895 0.012268463088948378 -0.0009176814400496201
0.14498934578875966 -0.015791264947221436 0.00470089587262127
-0.1095117828164747 -0.07858760963539714 -0.0038829116798952488
7.656363873170858e-05 -0.007980266678765079 -3.571590650108248e-05
0.008556307568232927 -0.007301820710686745 0.0007023655789797981
-0.13751619162902912 -0.024484014972399343 -0.006258126351961338
0.09461509468327549 -0.12846131496595933 0.007634951698231062
-0.012167188364342305 -0.00730182072477891 -0.00027565104000702034
0.16006351041815525 -0.02448401495642823 0.003159243407853653
-0.14233076466598546 -0.1284613149753491 -0.0022503410377485117
0.002171519509628347 0.024945415394868078 -0.00020024350422586428
0.0036325437595258058 0.023161681808309815 -0.00011449899473264509
-0.15203829752850276 -0.0030726941234307985 -0.004063681080208624
0.13379159291585033 -0.10485668672675856 0.0053873452294202475
-0.0006558276002730468 0.02316168180604626 -0.00012144801833736191
0.17162923486047665 -0.0030726941198840783 0.001522778483414041
-0.173465580725803 -0.10485668672684854 -0.0009347970935086669
-0.004315698983530061 -0.06341097391350206 0.00035329894765680984
-0.010457011673195824 -0.07728600715076125 0.0004932037205512098
-0.18651937331305066 -0.15577170720214212 -0.0014653872409469294
0.1053074197843189 -0.30127120723902645 0.004541138536456954
-0.0009057657753967892 -0.07728600714612192 0.0004760537613606273
0.17831061774618603 -0.1557717072047053 0.0015435982166891464
-0.1657905858478958 -0.30127120723960565 0.0013176004639789919
-0.0027674290526860604 -0.03872507312714908 0.00023517304291915681
0.007568104224351221 0.015164333770802589 -4.485625177800658e-05
-0.2860759677900701 -0.5537480913737965 0.0018889853996423899
0.4474855867424761 0.9127678236712113 -0.0035165061106012916
-0.006061005218448481 0.01516433376627376 -4.944971561247501e-05
0.215946580641095 -0.553748091366733 0.0036348720064397415
-0.33150864234230476 0.912767823667908 -0.0056183187284319005
-18.501117906590927 195.28772640928938 -1.6811642213701834
-35.9867944893906 14.620900348090098 -16.61677439841935
-60.67839221536157 149.13585867270967 -18.650134531093407
373.6359540257423 379.3911705480782 -42.24801167760085
-81.12504645716525 18.92117246749709 8.960881907615017
-46.808848228913455 -36.18836453122905 13.382242801068358
307.1473482745483 124.10947093755125 -12.256291599963275
-181.15819549675095 -94.08442264831572 15.524551502865071
78.15406683107366 41.12918905409832 -7.386471326093093
56.66167165507982 73.69735466857895 -6.350821412456887
-882.2591535030521 -241.6729445416237 78.39556292671696
108.85127555167156 -5.987608111481013 -5.7227023934351235
73.58323066524656 -53.15342668739663 -12.025449336085527
-115.88708360642318 -75.84422606601909 11.440713334058522
626.3246608343223 157.85040344656747 -63.820246056084976
8.90009931380025 -266.9733649238872 5.332803425569082
85.86987338098263 -10.509696776344015 12.253855134078105
61.00943949457977 -234.86085794149218 15.102853014096718
-566.8750745093091 -415.05558836168575 61.7064333244038
42.91142194604252 14.620900347847908 15.823902087541539
61.81454494530641 149.13585867270112 18.45925161353455
-374.1298253101214 379.3911705484581 42.32384340948315
42.39914921026268 -36.18836453133097 -12.511174148113376
-302.66972274081553 124.10947093758368 11.580327463451091
181.99045758206577 -94.08442264847703 -15.655104503678478
-51.50902760690514 73.69735466866153 5.442727222663961
894.1098351914152 -241.67294454165977 -80.16174909567681
-113.31391154741583 -5.9876081114259705 6.388639688898097
4.265341645306744 -75.84422606603994 4.706370700390066
-614.0152722764738 157.85040344657244 62.096936587665944
-83.34179653400281 -10.509696775611513 -12.599131280252939
-61.02708361923393 -234.860857941439 -15.109497830226815
566.8923729288098 -415.0555883620404 -61.708030231153394
9.094493460716803 82.18556379648932 -3.463655482729229
-19.328924728099967 -0.4262639832053559 -4.624145962387068
8.327463787791377 77.64818241894437 -6.752257498851671
226.2694037697162 122.63389638365214 -24.03024526453242
22.543459307893563 -0.42626398374090235 4.12814668797209
-8.554863598807348 77.64818241884352 6.773157121953308
-226.25434890077835 122.63389638370151 24.030243267362028
1.5968797549737201 -0.6960204794563914 -0.22921527996131236
0.20468076381503028 1.362483761491966 -0.12479000822575158
9.367252773347245 1.3556555926672043 -0.891953013038666
5.333415124261917 -0.25995581616316454 -0.5784292732032679
1.1432988229570595 1.362483761573254 -0.12212941031125199
-9.732790105447547 1.3556555927444158 0.9400165766847448
-5.232034881181056 -0.2599558160829989 0.5651774755441766
0.061712096319696846 1.0317944940407893 -0.036673450350084236
-2.435551005622261 0.47337405209602385 0.12828644648727908
3.8664500266819126 1.4629669572019506 -0.40686436779602025
2.3821203096845327 1.9986435232874755 -0.3110179559564114
2.3890792384077577 0.47337405210455186 -0.1371429832685657
-4.2050074450013195 1.4629669571756245 0.4588491113335568
-2.152831483075302 1.9986435232270536 0.27750699794775163
-0.031694770715934614 0.007964794774717957 0.00475842467640152
-1.1667500841292922 -0.05938997138750618 0.10566676316066922
4.594054131630752 0.07461128156116412 -0.3823959238754382
-1.6638800869330228 0.1485512605605558 0.10164716177960531
1.1448288148722974 -0.05938997139019094 -0.10211159662589805
-4.780896997138664 0.07461128155910254 0.4110099795609578
1.899662827663523 0.14855126057735132 -0.13720879599119729
-0.001967714563584789 0.004407451355393963 0.0003281995619544939
-0.5935289313387523 -0.013539303866795891 0.051072360038125104
3.7169815696992106 0.06821620767013514 -0.31997392151512927
-2.226103735584665 0.027105992194436507 0.17528128127950235
0.6150883962804294 -0.01353930385837744 -0.054207044466083106
-3.8292549455015688 0.06821620765978828 0.3365134117365148
2.3635441200880694 0.027105992197444778 -0.19595898270503842
-0.001557991300382107 0.00023474043425384154 0.00022728414487378513
-0.5373092646388063 -0.010962689902699302 0.047294779728858774
2.659985546441082 0.04143306898166256 -0.23302434284751494
-1.976798273713934 -0.003920346944240574 0.1688944276052511
0.5508776240548937 -0.010962689898864703 -0.049294699520001116
-2.733658177449805 0.04143306897721611 0.24392676644232913
2.0549582838720974 -0.003920346941163302 -0.18061876182966427
-0.0013230146971585624 0.004178728482121663 0.00018953291493381598
-0.20477390729939784 -0.000913318510786295 0.017967423543449743
2.6903436275982524 0.042108746076830815 -0.24034569530120997
-2.241496292747785 0.005835656889051459 0.19720207797966605
0.21120419422440886 -0.0009133185150249138 -0.018934086325309466
-2.7492645224660883 0.04210874608156979 0.24903554961414645
2.314771283063199 0.005835656886038089 -0.20830425731662838
-0.0014154696315964975 -0.006708534379358665 0.00023467757303750008
-0.03171498656674763 -0.007715967558482452 0.0029860840976436666
2.6601921399885433 0.02988311054939781 -0.24179918949461918
-2.563661003068513 -0.0005075826712791586 0.23146942903999385
0.03140406713946489 -0.007715967555749315 -0.002893344591601446
-2.704349211667826 0.02988311054879937 0.24833870139339115
2.6229788835593184 -0.0005075826723344726 -0.2404547835383558
0.0009358790386944423 0.020360696549274537 -0.00020303615510334905
0.07097483920381005 0.023571581459734692 -0.0068304096541020876
2.8255169145424186 0.07001806942333809 -0.2604485880328333
-2.134239844646244 0.06858118006960501 0.19449165785865302
-0.0668794924800202 0.023571581464783272 0.006067303103015612
-2.8489461194490318 0.07001806941741534 0.26360831955980235
2.185228273129953 0.0685811800731124 -0.20264205904629543
0.0008905915605733085 0.012471943399562506 -0.0001684732743981701
-0.09956726441988742 -0.005429038414542574 0.009284708743417091
3.774713652363609 0.1879207673081881 -0.35143560698766485
-5.82252909172622 -0.30751986826225935 0.5427252858033783
0.10035676077128118 -0.0054290384126150695 -0.00936679612257362
-3.7692469085747797 0.1879207673101115 0.34952419390736267
5.812912171714799 -0.30751986826553546 -0.5394630974538518
43.168411940876894 473.4209374797377 -10.588036473346328
3163.413336054231 3979.778565530155 -297.2017682165233
5299.388014882575 5990.967641541467 -239.38649302808076
5244.654407622868 5261.845937276254 17.35917558498496
-435.5317445287216 -429.6870043528712 44.04120669035656
-1962.3234432673949 -2228.485833913563 177.264394100548
-1568.6815518017197 -1933.5651468399567 66.5628059519182
-1590.149957577727 -1338.4694664684075 -0.2055631211132131
278.4013151844838 431.8445881821266 -8.723031608699344
858.0955025313253 1620.6261954073798 -47.950468401843395
-705.4955019329592 -590.6309821481071 10.253397634291083
364.168296399768 14.801885360688432 4.930266926628448
553.5828327124467 -888.9181820658723 -94.99706816213305
-5.282268711597197 -274.4343657039443 -44.2855375514017
960.4854188477693 942.1879573605274 -14.546152331367535
-110.42983346463092 -418.1201750120598 25.511900361845953
-3283.8949082405247 -4147.641425765179 322.26332537212
-5849.039356593319 -6348.509140629945 283.7691246527396
-6308.335237829056 -6039.644511044607 -1.4879188214642274
-3125.104558538436 3979.778565521523 292.15395466028775
-5292.6010588416475 5990.967641544458 238.41438767913158
-5247.695029941533 5261.845937284737 -16.91374458280603
1939.1813288891133 -2228.48583391602 -174.17790629622124
1594.9540651771265 -1933.5651468404212 -70.24906522154733
1597.307282040401 -1338.4694664711903 -1.1035203279291712
-798.9895826336998 1620.6261954084998 35.886234685975346
782.4133159393351 -590.630982147762 -22.01428659049774
-393.4715417960687 14.801885361487747 -0.4081020754066256
-695.3299582799428 -274.43436570379794 148.15106349868663
-893.2442384420116 942.187957360101 5.8447095195546055
3297.472929136985 -4147.6414257393235 -324.0544391447105
5848.94575343743 -6348.509140634659 -283.75749382998714
6308.532324179644 -6039.644511055029 1.4476017275911086
97.87881005654476 187.01225408868194 -16.962233099014288
1107.9879756922958 1328.2769908675614 -111.56706729713555
1926.728341403751 1975.6944930090026 -99.38860471624874
2089.6566393947473 1913.5777002851432 -9.413302110619934
-1089.5510899743879 1328.2769908486403 109.00300719498226
-1927.9787654075665 1975.6944930107418 99.55406167407423
-2089.525331076139 1913.5777002900045 9.389286206687643
8.40341523526281 34.12791393414692 -1.154743418357579
30.776161389462256 20.450816645967777 -3.0157264923974236
53.80555038383934 34.781187268903835 -2.6294277455236634
31.139124805062682 20.40691601244176 -2.70420644737266
-22.48507254904878 20.4508166484953 1.8030449354880485
-55.88710141630903 34.78118726993182 2.9149048429961697
-30.499738716019937 20.406916011499384 2.608652201061278
0.8891154936281813 5.025770213736273 -0.16592637198862645
12.368713935566156 15.08483417531814 -1.6279084611802461
38.291431041416594 35.10876523315007 -1.115238224753183
34.232323131953954 34.860898811361814 -0.7470551284032313
-12.390695187223194 15.08483417591485 1.6067616932312003
-40.29339063139038 35.10876523252043 1.3983826311567444
-32.813666879537436 34.8608988111895 0.5384067135596134
-0.18808889498511433 -0.8320971163887166 0.02632914900086173
-3.769046197901924 -2.508999414791128 0.05488790467466621
8.73595687307823 1.9501331208264256 0.26442724518858135
0.3224889477337462 7.362549782178297 -0.45354646726276326
3.6479996301163724 -2.508999414863871 -0.03833508847171481
-9.864171593179394 1.9501331206679346 -0.10263026517799252
1.1813488417329074 7.362549782544341 0.2269235016824893
-0.012457285350535554 0.15647997971641225 0.0018632877254614172
-1.3214725351155512 -0.1582924951536575 -0.008471272930569478
8.125787690032846 0.9714666867662192 0.05811069806035302
-3.3178097999816725 4.722280727501719 -0.22154227539699603
1.4516911350116948 -0.1582924950624946 -0.010262498193896224
-8.812951673304948 0.9714666866434197 0.04170947210743854
4.220558896482115 4.722280727481703 0.08231202640860615
-0.01012009737459755 -0.08730076351764395 0.0015496605210413366
-1.2415949239338964 -0.16795997139097807 0.002662567215415948
6.061725929059703 -0.19897931051888829 -0.0002930786747533153
-4.112691252437513 2.4802471701172375 -0.050541609391638084
1.3245158633151108 -0.16795997139823138 -0.014685687793587842
-6.524640224579861 -0.1989793104969222 0.06912209472158459
4.631957335298135 2.4802471702010105 -0.030262497477778608
-0.007307529165529115 0.1323018942024657 0.0009567755854052537
-0.4677560132551699 0.18678378940548424 -6.266015810131208e-05
6.451088967680429 0.03016894888238761 -0.050383942770183446
-5.104273953397943 3.3166244890767733 0.0017418328198868431
0.5107852723617857 0.18678378938730025 -0.006672245356424549
-6.8203022386616174 0.030168948906398495 0.10514060167477764
5.609804343460153 3.3166244889893095 -0.08267174552796783
-0.012754473123846442 -0.4957032597868316 0.002391143163070826
-0.08792707429963242 -0.436018207262444 0.00300627476223183
6.659344956390226 -0.2956711464583636 -0.09335546535235759
-6.281183055072606 2.673855187415659 0.06761580634493375
0.07912374121064167 -0.43601820722844503 -0.000818737935481081
-6.941984702274965 -0.29567114648265286 0.13603258835212814
6.6923489660186055 2.6738551874415686 -0.13365862500066403
0.015360837263493863 1.1962869502121685 -0.0034997432396817046
0.20936141990664095 1.4798440282935412 -0.009621347064126028
7.3308319521907865 2.744788265570997 -0.14446630319404422
-5.3459087750056336 6.218292472737599 0.06761085247600677
-0.16024820981244436 1.4798440283896437 -0.0006786523313240849
-7.436021349591597 2.744788265499996 0.15470857160873255
5.762441731607086 6.218292472754705 -0.14185401385918547
0.011321294562844546 0.7928506387187759 -0.0024165489952157598
-0.266033580277911 -0.23432452190487726 0.006467720745535017
10.058899884049923 10.591332593949405 -0.24541637596794014
-15.558537386914171 -17.241138732844146 0.38685293613515154
0.2665000780413276 -0.23432452206059134 -0.005958943318634321
-9.86175581466357 10.591332594217002 0.19522961959780255
15.228832166988658 -17.241138732990674 -0.3032955034334472
4642.093762917463 13816.013499746447 -672.9720604609989
7723.128553350327 17527.26237957525 -467.97514374481653
8708.70233645324 17591.495660242697 237.90233450252006
7176.920653126022 7726.260275975751 219.81836067890353
-2289.797164088445 -7755.892945794726 314.52936480461364
-3282.7047421978677 -11042.639525902567 74.13621837412032
-2951.4989747587806 -8155.297672546358 -243.4776407271968
-2357.0132681633695 -3520.499682355986 -164.71811631194544
1758.7239550566878 10424.979058544623 -264.34668075131736
130.929341624925 6930.17364307208 249.5519596071424
267.9606197383792 1480.0861815641929 59.12675931048367
392.3536722760064 2178.9510023220055 214.7515189795734
760.738489834724 -7070.835094711515 -118.55395057690946
649.8751762694673 -900.3492546061351 -173.94982611744723
655.3436687012414 755.5682114578862 35.94746149194426
-5519.133844210527 -16818.97725007136 836.7060530323128
-8424.310327112944 -17915.746218926983 551.9337290437687
-9699.515858292314 -17827.293932905253 -163.5636138759473
-8150.200572150595 -11226.866870970487 -482.7155154201599
-7728.808643254771 17527.262379560063 469.2172788339548
-8671.087442863703 17591.495660253375 -244.03634825606804
-7187.346664680832 7726.260276006028 -218.14167266225263
3044.987025256138 -11042.639525912067 -34.059951087697144
3051.0527988279478 -8155.2976725479275 227.35207283382508
2354.0245907963235 -3520.4996823653782 165.39740227590647
-217.20648928613636 6930.173643074989 -232.7594969586446
-98.72471786972265 1480.0861815654089 -85.73704144814991
-452.8484071483409 2178.9510023239054 -205.2809839927627
-2219.8175267438482 -900.3492546053234 420.28192538002673
-413.50305358511434 755.5682114567476 -75.02255276181678
8455.581328289025 -17915.7462188632 -557.2981261107898
9705.935509063347 -17827.29393292484 162.50704915890907
8148.801143493532 -11226.86687100594 482.95329912497505
1859.4276951608022 5985.522270784038 -288.2497099608646
2752.7073693738075 5862.050422483939 -179.21684982589693
3168.8332396849773 5866.95732086265 60.52562487335135
2624.9988862443915 4383.221029868242 213.4114001148159
-2675.8363398841775 5862.050422433098 166.54958718467483
-3164.5091259761525 5866.95732087274 -61.23695422227987
-2626.801075412194 4383.221029884436 -213.11074367575267
14.787149486696503 202.98780322801642 -2.949075104252591
68.89251699275721 144.2142950291188 -5.330176468632224
74.3189210515798 191.7873667049419 7.078775089535596
42.57939407124978 166.92415980385985 7.018769332527375
-10.297961941302884 144.21429503620024 -4.196614753419697
-77.41728093435682 191.78736670633126 -6.57528728024287
-42.32562749401273 166.92415979945372 -7.051577414009073
22.307574316253536 92.38993821431956 -3.4785838042822586
42.23914679381813 62.6725616675324 -5.0191949360815
51.68364393884181 118.88673894250907 5.477872009304326
48.3996529532108 85.80742936453618 1.7365221187878022
-32.17183432930208 62.67256166921329 3.425879811655526
-59.65530796789221 118.88673894104916 -4.185615424621845
-44.8890491397581 85.8074293650784 -2.295535094842049
-0.73555311413704 -1.378947851115058 0.11730156311918354
-3.5271293510438912 -18.394360794292382 -1.139484290873193
1.5512767009179331 32.627847083605886 5.349585987741363
6.504770290110367 17.94239003367813 -2.832451086457735
2.8974159962755426 -18.39436079439176 1.2453231417928388
-5.8238537832646795 32.62784708309935 -4.6632677834592515
-2.5088170295913645 17.942390034586154 2.1984525888001762
-0.058399148253005295 1.4424472065461327 0.009402272419693039
-0.7135165984295762 -3.603249315793477 -0.6395976213796072
4.174429160477082 21.860934045780784 3.991266478939283
0.6797983312844857 10.376651082221391 -2.806677982799421
1.0695826752333875 -3.603249315659511 0.5826377779852305
-6.136159259714854 21.860934045563635 -3.678663511383157
1.331084423254676 10.376651082091302 2.4913320142067836
-0.018204931523922933 -0.13354286747962477 0.002839916953676211
-0.7794014295615084 -2.911803354817142 -0.5448051337021272
3.7365383375026875 8.667091055362759 2.720467950369556
-2.0259767675016978 4.753373890623902 -2.1309809091081067
1.0200324379506156 -2.911803354895895 0.5064674911219166
-4.920498452124061 8.667091055579155 -2.5329025926696698
3.0761126876950837 4.753373890779293 1.9673219594121643
-0.028438676405847442 1.1388256791686786 0.004594058993195396
-0.3020142130707596 0.26913392450875323 -0.20745717750396758
4.589654150416076 7.882867856782923 2.604503722432629
-3.393490974622021 10.827303059781146 -2.240299745077701
0.38605145761857934 0.2691339245674001 0.19438780123694444
-5.528503739598852 7.88286785663567 -2.4558226167629593
4.244906224586731 10.827303059668207 2.109719271555555
0.0031706713718506058 -2.5873074743876665 -0.0008510682491943025
-0.05492050770680222 -2.5301143021378976 -0.029765879826214023
5.27877049034479 3.726674486901146 2.4360295259013287
-4.902491341063161 9.037086407675389 -2.3817866424359373
0.09458916243942855 -2.530114302128649 0.022874739808614666
-5.934516028420108 3.7266744868969037 -2.332788100120981
5.568939121591554 9.037086407723779 2.279949972547298
-0.046829182860110015 6.795194225016597 0.008260048918226745
0.12429519378487955 8.218538429520892 0.06464124169666188
6.067731772579534 19.017180838045153 2.4896874268364635
-4.630231691363734 31.022459696960063 -1.8900087011995872
-0.21245494977271967 8.218538429809632 -0.048587202101389185
-6.704373117231198 19.017180837808922 -2.3852280514331694
4.7894047193172575 31.02245969704249 1.8736263679770395
-0.024551905264422656 4.632521447717734 0.004411824245497889
-0.2202835893407534 -1.3224423399571563 -0.08624495558743117
8.345780298082364 62.22177790811281 3.260216441351952
-12.907579952643378 -100.46223575996265 -5.019033119508981
0.25958016573358816 -1.3224423405520713 0.07964614741316918
-9.32400782425456 62.22177790900093 -3.09075861350301
14.50630422084935 -100.46223576041211 4.741896166946017
1707.4138778941574 12509.609328650497 -227.40780650940735
3211.5805722741716 9348.633383161934 -203.8007017151271
7057.288749118969 21000.30263916484 725.5950237761087
6275.506450996049 3963.1186839995325 24.632608156214463
-902.1497147607215 -9283.564041693262 73.2879341185736
-2482.613944408236 -1710.8695798337287 348.4017171950479
-2105.5192567843037 -11496.434474244797 -600.329296126237
-2922.7062816841217 171.15924791265397 117.03179741162432
930.8162426589143 19030.442838658786 -87.34275037023792
3797.993578625059 -171.77803425162944 -474.4511603798801
-700.2028335943236 4314.1009795409855 362.88740734211564
336.6053074904007 647.3038181867059 170.49474387512788
-608.1853559128915 -12454.6900217875 69.6650965934342
-2910.279917993463 1154.2335791071187 314.62903906399123
1549.914314245617 1088.6683182535082 -26.27042875600857
-1667.738527267367 -19188.89951912658 254.6046213121505
-3124.635757563026 -15477.658285160413 -73.76643032564698
-7123.447488921918 -22648.736011053148 -874.9118860691657
-5050.089797933517 -11417.466141990459 -848.5897160785537
-3242.463583739734 9348.633383137058 209.6208200851385
-7053.46859066118 21000.302639168527 -726.4490024258625
-6275.3328926415015 3963.1186840439736 -24.593494213475925
2441.8244598069527 -1710.8695798436804 -339.5733721088296
2109.183999338965 -11496.434474245141 599.2918778560172
2910.3899401078006 171.15924789997962 -115.3664052914047
-3933.8042673633486 -171.7780342488745 493.0057502390782
661.9291846791554 4314.100979542437 -358.37006487941846
-320.22094489493986 647.3038181894484 -172.47494509570078
3186.162999723326 1154.2335791085457 -350.0223512318571
-1530.1486378615173 1088.6683182518696 23.3184386614167
3120.937827102294 -15477.658285074027 74.12364297681894
7125.292623640897 -22648.73601106311 874.5689717643918
5049.319585662789 -11417.466142045903 848.7089230207239
467.58563379193953 7905.190440282551 -76.44216620205827
866.2547618039166 6542.137189850608 110.14302796430336
1953.425151024921 8126.495591356017 389.28312805141354
1167.1784756452846 5505.282585119791 472.1864301729438
-862.496862623695 6542.13718978534 -111.258950480614
-1951.1932703586185 8126.495591362241 -389.6871051335352
-1167.885838958288 5505.282585144798 -472.0659760909818
-6.69139762517191 409.161564856368 0.521833505446723
7.979030932566904 376.36111772148064 12.400674899735822
-33.86139860482786 362.7436295190745 33.16830259238254
-30.857327858989663 338.6094221012211 29.55210300923173
0.015694155254861602 376.3611177294826 -14.06210407021785
34.86274854195209 362.74362951990327 -33.32408126765624
30.251849887135336 338.6094220972341 -29.458106327074905
5.719044727725344 115.1525006299256 -0.9579765764847737
21.50591684956613 67.6283269220261 -2.0050553670870785
20.045732222235067 150.92303686858799 12.842720501353245
23.785161684356797 128.4350105386202 7.2785752723940345
-18.75885911343997 67.62832692472641 1.5145909504483823
-20.39018070494206 150.92303686783742 -12.746781793365813
-24.254521645086534 128.4350105380112 -7.226086693173741
-0.04509184330037666 -5.105574518847399 0.008707848334069616
2.1161920713755156 -25.34032443311988 -2.376087905391789
-10.552866849794743 32.01350799150864 7.963461108653372
7.311882855909728 40.839354192076904 -2.6436980271231922
-2.168245089267198 -25.340324433499802 2.3901887536933772
10.426750672077317 32.0135079908569 -7.923559525512889
-7.811697475850647 40.839354193302235 2.6923121045016485
-0.003220563560403737 1.7621985140196887 0.0009175312816883552
1.1141969216471286 -3.609912723879951 -1.0582554860302038
-7.209996138102731 22.634631124534966 6.600073347973813
5.4899926416847515 24.14425232441422 -3.810251608991579
-1.1406156229932323 -3.609912723847924 1.060784940431979
7.334723050207085 22.63463112439571 -6.610404291574311
-5.948463767924458 24.144252324252427 3.863561318976299
0.006248734412637424 -0.3787533203070457 -0.0008064180553479326
0.9102693071480903 -3.147810998931375 -0.9440186247822595
-4.498216487992679 7.294098390624345 4.6642576548878765
3.5835810884486783 11.529834894013007 -3.4453574629775954
-0.9236574667857345 -3.147810999143323 0.9450346078787157
4.647547603292359 7.294098390914448 -4.680371324871801
-3.8890186057932423 11.529834894226099 3.4824435144540793
-0.0025842224472346007 1.4056545336893607 0.00041724201099798276
0.3296514840709043 0.7609466595715345 -0.3581841250522461
-4.067792110167422 7.346168618520796 4.682865710737592
3.440745056565424 19.204815206264232 -3.8873251078608666
-0.35650547771247526 0.7609466596454583 0.3614619922707659
4.185691034525766 7.346168618405246 -4.695814111376781
-3.823858982333532 19.20481520604319 3.935189496061369
0.022460027347866177 -3.7127968384832433 -0.002933522241704259
0.05435464000529857 -3.4972338795030287 -0.055798533540253
-3.5941348288114665 2.683822267912475 4.58965939430641
3.4470891001959547 15.669075764988998 -4.417853823572058
-0.019292549091741395 -3.497233879275 0.051141756421085934
3.7146795464542284 2.683822267622236 -4.603806190757871
-3.7694916929902558 15.66907576521398 4.458410720350246
-0.04955495449736626 9.450065476972117 0.006558054071047274
-0.14192387152908453 11.522256579907637 0.12504771165817818
-3.659977070680391 24.92330698454861 4.850696426398568
2.5061674402874146 45.30916529096681 -3.6491408685278675
0.01574357641887559 11.522256580298635 -0.10841285623566162
3.499727908403327 24.923306984169617 -4.828372921097937
-3.1009895618298726 45.30916529110453 3.7263871442277177
-0.03095468175805334 6.448378406899033 0.004107494952566143
0.1270174281401306 -1.7960998034766298 -0.17090502757972728
-4.968424431146732 85.86034063653356 6.4715384134394816
7.653233391342826 -138.75225938003535 -9.979745930316785
-0.10669531283395264 -1.7960998043212433 0.16820338500521786
4.138108648661359 85.86034063777626 -6.361059625097527
-6.281128139961821 -138.75225938066885 9.79738913316335
-441.0435872671385 7542.661014101062 166.32374870273426
596.3811605351005 -1519.3012100951103 -139.72635265277015
1691.2623740595216 -3410.2060048768817 -501.7585467279882
-947.2150538861155 3512.9982778831104 486.9489608366311
356.9216238562286 -7184.304694534473 -96.00552149711179
153.43732231000376 2579.5768558608384 98.45871022857823
-3197.916283373902 6115.770538194163 849.8919040614666
540.2922070637443 -1447.8624359790715 -174.37179197719266
-1909.3796918807222 13747.660525724932 289.85170554846
397.23395174120503 -2064.683241208134 -137.16460324272242
3865.2108739345426 -7477.306162452466 -1023.5312731398136
-1410.1197386755616 1419.6684937358336 247.2154591169839
-576.7999806691854 -9923.538092077566 79.9512286448464
-645.5713548711874 2726.908341505203 163.9380427635325
-1466.1491999213154 3259.2022054097147 488.65860677851765
2325.214012704734 -10898.603436194711 -429.45696730976823
501.30047277126556 -3285.0452944113285 -218.70809678808303
268.9426357790012 -792.3478179062665 -68.36404382628592
3882.736495465194 -7340.73889017984 -1128.3500060652493
-625.3378602766148 -1519.3012100749536 142.71262059659338
-1737.2266882580723 -3410.2060048802186 508.4914126764416
959.5850719465689 3512.9982778807075 -488.74390193505326
191.89203406898446 2579.576855855664 -148.52877953226798
3071.3440334000948 6115.7705381957885 -831.5748751874954
-525.6837034544512 -1447.8624359790265 172.2235257599975
-115.5184565041825 -2064.683241205911 96.84434144096132
-4044.2021515800975 -7477.306162453839 1049.226600806665
1471.942127895905 1419.6684937359234 -256.076525806379
2369.8724762150687 2726.9083415042687 -411.4167559038338
1137.6353358971085 3259.202205410408 -441.3672657483656
-565.619219186338 -3285.0452944404633 227.57117028038365
-275.99866000655106 -792.3478179018297 69.4337536108537
-3880.607885941553 -7340.73889017401 1128.0347836064072
-1179.4835701751024 4614.269351642649 194.99487827617793
-656.4433275694977 2531.224788737106 195.29292944856866
-800.7085043528134 1713.7140085432725 211.14089839960926
-1964.2017287336027 3390.753696284182 513.9826777330776
548.9158098660306 2531.2247887514613 -179.84164368466057
797.5219945698647 1713.7140085405579 -210.6036628934922
1966.461395326793 3390.7536962787754 -514.3220849532685
-52.81667013921202 251.08762949977083 7.055888411563186
-94.93761819643883 262.5347687586092 22.162684655861657
-163.56826679363414 313.6762877674271 40.995938565199225
-100.91130741069607 177.32658379288497 23.420795517212294
27.810775423390403 262.5347687576625 -12.216938229679144
169.14819038925103 313.6762877682478 -41.7571611447489
100.57891154419488 177.32658379612997 -23.38418290999469
-14.819899578926812 62.30570639916258 2.430930184778601
4.015727944082385 10.744677809016668 -0.006840419125396121
-45.74124126440893 62.654191607999074 10.420940010656354
-22.99630017488269 65.24309907891667 6.914754593227401
-11.281077013032732 10.744677808338526 1.1854270276760828
55.75068061527808 62.65419160778809 -11.872796846108486
18.792425599967828 65.2430990774083 -6.313042367426291
0.8359881835500795 -1.5653159961778504 -0.12258901342283193
12.019941824504318 -18.921849900647775 -2.468745367450853
-39.4164256900029 34.12694545154752 7.741333217493349
16.38396769319268 21.668925661953136 -2.6503618864488034
-11.057462800074399 -18.92184990051159 2.330999386077406
44.44727484395134 34.12694545172373 -8.474779481034588
-20.788433913059247 21.668925662009876 3.2870797411060413
0.06461798562810918 1.550189181844767 -0.009529012937663093
5.237018311601754 -3.575334352921551 -1.0579230502119654
-32.741122687650666 22.07546033335179 6.5920288173329915
20.210932288779983 14.159603526730303 -3.8010412369522233
-5.677754436999567 -3.57533435277846 1.1211495941037652
35.04837360073956 22.075460333137016 -6.925080038033637
-22.250240472658213 14.15960352686774 4.09502653581044
0.01929576117185556 -0.23511789589907856 -0.0027317088036357892
4.623626318292788 -2.9636230878868033 -0.9492715098130893
-23.000834378857355 7.985396958613877 4.703530022027725
17.37303504021224 7.1704067598564345 -3.4845042158245105
-4.905697055304325 -2.9636230877595877 0.990031919604367
24.332890678361018 7.985396958526354 -4.895510334499155
-18.394530046940968 7.170406759780245 3.631287019209476
0.03740217721214508 1.2380138980242354 -0.005409491961962775
1.7775024074409786 0.48426750879898955 -0.36411392975295565
-22.887796011110698 7.428437480661808 4.756380719428708
19.377924302542887 14.15961396912117 -3.97842909968119
-1.8575390191605745 0.4842675087156726 0.3756012865119071
23.94737286294019 7.428437480706148 -4.909025761902329
-20.079881971949057 14.15961396918962 4.078917989626285
-0.02515427292910526 -3.055952409743568 0.003673086414637997
0.21884071559000298 -2.92551703989984 -0.04967862049820521
-22.33237489844291 3.0516134787372455 4.70530869996166
21.719325689445192 11.819798135756061 -4.552377704456601
-0.3016005960701837 -2.9255170398996615 0.06168355974300653
23.038640436017563 3.051613478797723 -4.806926749915405
-22.250037916674607 11.819798135662303 4.62823366354878
0.1055135416320213 7.894506951519329 -0.015313529793907174
-0.45182266863905557 9.591171622118262 0.10506358588458928
-23.22427135100511 21.236714791561308 4.955116169787822
18.298510413841473 37.00473321133324 -3.8500366561093764
0.6814792591133703 9.591171622231915 -0.13843303032710783
24.17292955649162 21.236714791307453 -5.092231850214495
-17.93740611524087 37.00473321152748 3.7967296584534815
0.05974486083560761 5.321807452018997 -0.008683092129019198
0.7902060382164838 -1.5583558944835534 -0.17167085826228126
-30.281616104791343 71.65588391328176 6.528086729177308
46.538102732183496 -115.99465577035004 -10.050452318614973
-0.8590779221659873 -1.5583558942653257 0.18163251078827827
32.290055204753195 71.65588391303685 -6.819396652654987
-49.837001096400485 -115.99465577028649 10.52890090021276
97.83411711669898 119.70535284803455 10.372868726331495
299.6699204551735 -22.236529451942975 -58.28300524891276
-221.8336426001871 123.80207991253647 52.22709903100512
-1729.8861992936863 1758.1804260628544 297.8095296615291
1369.2198613639077 -1114.3411344851302 -217.8435582585197
-218.13862704402803 10.882846554018759 38.152622808437535
-263.56420688522724 308.513732321307 56.82761072374416
1067.5678164196202 -1001.7231724203548 -163.97376715992326
-2220.2689824583863 2088.3109503064497 340.84642780763016
657.7858680991412 165.30404708187436 -82.36481237312695
1094.0523079710263 -931.1661668050805 -197.5400970283995
-866.4988799491665 763.5239324599316 132.94364625075858
222.37704842354077 -1020.9673104744951 -45.240820151622515
-162.7545963089428 -382.1812864786885 4.840065709062363
-1107.3121911683584 803.4030814267494 187.94416492847358
84.88480019692027 -121.49258617157992 -30.752800269176298
147.91712211921876 -193.39583934239116 -11.872326067189906
1003.9513585739874 -633.4204894501644 -185.5127648067742
3142.191761953356 -2889.029135683434 -533.6503558022514
-359.8112525253121 -22.2365294496845 66.69299149170347
206.55250247544032 123.8020799120741 -50.03629202019783
1734.4955471032513 1758.180426062113 -298.45390921317113
321.5996078807573 10.882846552803949 -53.12226737915405
211.30438990931796 308.5137323213642 -49.38096729997758
-1055.922581759111 -1001.723172420246 162.07843715507306
-463.75652549801947 165.30404708246425 52.04623518942165
-1157.3193785503756 -931.1661668050264 205.7649548136263
887.1374988014118 763.5239324600037 -135.55084643539632
925.0250728384082 -382.1812864788636 -108.4713612865917
935.212115673952 803.4030814267022 -162.98709621666887
-180.51568334817318 -193.3958393440372 16.476008840667063
-1005.2685835088573 -633.4204894493934 185.71535262446554
-3141.2899316022817 -2889.02913568261 533.5101036336152
-178.70977117089478 148.0548334370229 30.02244801835341
-284.959053975997 185.65186954786336 39.881382444508404
-701.4520656065089 463.54893217002166 118.70217796098191
-1382.5396218279536 1209.73359258489 230.4692896812708
243.18236247424153 185.65186954794726 -33.934809193225924
702.5103364200947 463.54893216941093 -118.8358533471861
1383.1724511616144 1209.733592584572 -230.56771573628367
-20.56294517730889 21.138464781251603 2.7949923708897724
-42.41996192760197 20.00564403689201 6.479615939267139
-90.33100336194072 67.59634238976967 14.297667758746647
-61.39209132012803 46.79400442314668 9.735512648474934
22.724898779595804 20.005644037018673 -3.6344000114338892
93.87120163567744 67.59634239015604 -14.7925095750441
60.99668837235982 46.794004423383896 -9.687294938485525
-1.882887336322053 2.5645270278345427 0.32070550737181713
5.475703256389898 -7.0569482095831555 -0.9073478483033675
-27.29932652939324 22.49840343481567 4.54022836241685
-20.51996006998143 20.751090578957974 3.407386582027087
-5.7465000318036 -7.056948209596503 0.9662422140286755
31.243398490509147 22.498403434630962 -5.101728993048255
18.74139730652705 20.751090578740445 -3.16330001350074
0.3624616844204311 1.5537602935097994 -0.05209051625838025
6.496847414338379 -5.47258468487359 -1.0335286874124507
-20.519351169235662 15.487060421231485 3.3040067996567295
5.892341031899301 2.7621732657989435 -0.982693046051467
-6.154183339132202 -5.472584684868292 0.9846683847839826
22.49984517801773 15.487060421247076 -3.585110977740267
-7.488941521544452 2.7621732658546967 1.1982622306651904
0.019859863236723025 0.5967764161705316 -0.0028005211039142295
2.8186291961231476 -1.645598711873401 -0.45107124864266357
-17.699052500411614 9.854944014615834 2.8294431812305336
9.979415197604983 1.0770064159250254 -1.6137523532346483
-3.0147553132507348 -1.6455987118277677 0.4784810436290816
18.68102147500227 9.854944014552894 -2.966427420501234
-10.647899476585577 1.0770064159542918 1.6992388408350036
0.007312640052036222 0.00019395551741322953 -0.0009258989720137501
2.588968124709393 -1.298977566063966 -0.41249155577204016
-12.826351680196812 4.451090084914066 2.044939251663353
9.482105006474248 0.2738506512356015 -1.5162960184966052
-2.7093692298460907 -1.2989775660373426 0.4293210294024612
13.360281264621523 4.4510900848927415 -2.117815655800787
-9.798098948311798 0.27385065123597024 1.5550517003477895
0.018493141184790486 0.4638243640925794 -0.0026817880541328575
1.000026332913126 -0.012787247743546473 -0.15936753328554504
-13.098532261212563 3.9053592452841266 2.082149222904373
10.99918958445784 2.616783339114878 -1.751621825031412
-1.023250391418597 -0.01278724776960104 0.16212642414597958
13.53094119889186 3.9053592453089325 -2.141285917129254
-11.129817251624145 2.616783339107582 1.7624531134517067
-0.023542152973036985 -0.8989146005865923 0.0038069587098625147
0.127431346391131 -0.9224365981530678 -0.020202764443153946
-13.070602411485492 2.1218907471900597 2.072118132188075
12.68837231290831 2.2409873000946376 -2.0131856583697405
-0.18484217588089868 -0.9224365981514315 0.02908848517871059
13.340790958139692 2.121890747197497 -2.108146316688679
-12.774949077334277 2.2409873000869904 2.019012527399272
0.07580702120413091 2.460964721481947 -0.011799579987410254
-0.25425425564752063 2.943887682441928 0.04017058064584479
-13.747947990762233 7.363910457966726 2.1753251588523312
10.887814923355146 10.47191308653561 -1.7240509531587047
0.4285818981852756 2.943887682457122 -0.06755100188033968
14.280562959278358 7.363910457950123 -2.2544218104871594
-10.412062266254267 10.471913086545653 1.6442918841526215
0.04377265729284843 1.6554650499623553 -0.0068558498513490735
0.47271460253954756 -0.5082242519887827 -0.07473554815050606
-17.972685191789257 22.67326461189798 2.8404076334776387
27.648995047242536 -36.64533670072328 -4.369221033069544
-0.5169543894369529 -0.5082242519752257 0.08145511026570129
19.352132837452654 22.67326461190094 -3.0536422039093267
-29.92421674135884 -36.64533670073419 4.721014924003257
-12.60191086742354 427.8522021483031 -18.395599896213287
96.75687717833956 605.8674331414798 -14.446603650213545
154.15140934598793 612.328797272437 -20.388991572595295
-515.625590542426 210.89655275519056 33.079949775836354
115.98722934152576 36.963087597696216 4.47247279082065
-97.5064303848284 -210.38443131758214 21.750626510616062
-299.2771060418352 50.1315059933235 64.76442597517311
867.1861440101557 -134.06201399823993 -83.54241878818937
-109.57884954332751 -120.8640369150075 0.26856129011220653
325.0515404160144 97.78981646562586 -51.32631456134623
788.2925904395065 -411.65823163053284 -127.5339144535248
-363.1434789858262 38.82130629599046 32.09934185636736
-125.63297614023058 56.1578062634189 25.248907035500416
-149.05418654258102 -116.73440301218398 21.67327376315374
-702.8581566147398 300.66861835214024 100.90827384724224
51.111282881254965 -523.9161472820643 3.178406082154222
-20.391543584802385 -602.4020689983561 -2.7837706138983553
-22.299726601063313 -708.8237406583352 -12.006170182270974
171.23278888674912 -226.3462301517333 2.838674796957565
-106.24205549676635 605.8674331405866 15.713288080970948
-156.3503558801153 612.328797272996 20.77291064446341
516.4904238548198 210.8965527562469 -33.22433856899074
107.77118958497049 -210.3844313177658 -23.900387530855138
291.43039329342827 50.13150599332769 -63.482863004562
-868.4535839880543 -134.06201399857332 83.79580293495468
-332.50107824836624 97.78981646568253 53.01883645848928
-808.0055536539192 -411.65823163061657 130.8353185602671
370.53934351796477 38.82130629604985 -33.34602847135083
331.9208221769978 -116.73440301214751 -50.84224539801979
682.260130613312 300.66861835215803 -97.86097709776463
16.27825701587294 -602.4020689957885 3.4945647175169205
22.224461455726352 -708.8237406592677 12.026755247690478
-171.2410832019442 -226.34623015282543 -2.8366520504316335
-36.92722360055733 155.2135942023455 3.9306285085098263
-47.286487357813975 164.97350708722854 9.080976243217188
-74.17704468678635 217.3303087340921 15.672783130694475
-54.96885784886796 78.07464186615348 0.9029279618317191
41.50483550612218 164.9735070853519 -8.077268861231486
74.42897759031939 217.33030873451278 -15.703239390275716
54.97324336611487 78.07464186648971 -0.9050402664914874
-2.700738173605428 0.6783981296589932 0.5930736812641475
-8.906990979146567 0.005518684479437239 1.4631491459281107
-11.829154984878848 1.404774297522543 1.5979187594837887
-6.128195078506043 3.6440484183405735 1.0969634173539025
6.084323764938981 0.005518684746692014 -0.9616936567905937
12.393301950065581 1.4047742975754498 -1.6861476884921933
5.978986539733808 3.6440484183273085 -1.073707826993355
-0.38484263595958856 2.777747207677635 0.045216479250420986
0.5196195927216052 2.6418111391667933 0.042060690414260325
-1.1663198649641844 3.7059612933224524 0.1342107160207843
-2.051563030779558 2.370593579236422 0.2806956616093107
-0.599858291941478 2.641811139209843 -0.027005006147745363
1.7679070405985442 3.705961293281256 -0.23379129210255395
1.6703218910891369 2.370593579204117 -0.21838339228852394
0.055224922395925226 0.017400695768731288 -0.008446170861661332
0.775067452717635 -0.2554622745269026 -0.07793109946353682
-2.213046998527776 0.582495329868439 0.16095774103366542
-0.7466180851382519 0.7443523344223552 0.1784801833479921
-0.7333587351366759 -0.25546227452597964 0.07005385120424701
2.542188438491784 0.5824953298478633 -0.21431720908679755
0.34659694738539615 0.7443523344566497 -0.11182042207928526
0.0037124959278254234 0.02261287640276691 -0.0006378060464820022
0.4052727569250568 -0.0717306429799518 -0.03781096359678902
-2.5549979367729203 0.4043844933302189 0.23887126775673953
0.8225805812798836 0.43937197561912916 -0.03592594178059328
-0.44128682017153564 -0.07173064297559768 0.04360063718302771
2.744180756168446 0.4043844933240445 -0.2692660383424152
-1.0523425360965872 0.43937197561311236 0.07459194591885995
0.0025332671482216356 -0.007228942196728567 -0.0004227875092299046
0.43913113687837224 -0.06239156011747661 -0.04446985696993198
-2.1347386193369915 0.15166867733915954 0.21396671852789934
1.4170810607070954 0.21722825418324376 -0.13268321074005893
-0.46202427866355866 -0.062391560119606275 0.048135803421114016
2.258118879490403 0.15166867734529105 -0.2341108370467071
-1.5466941622478159 0.21722825418787836 0.15459930831015795
0.0022551805731404295 0.03109015950622235 -0.0003384841276728025
0.1686586669402254 0.016902592726926718 -0.017014796582626033
-2.425682210198018 0.16480840827799156 0.2550766959724281
1.9138492842306292 0.382507775379362 -0.1951775695909729
-0.1793110588324206 0.016902592745209354 0.018827583094433834
2.5241352842508626 0.16480840825497442 -0.2710845729592031
-2.0345733666344645 0.3825077753850182 0.21610485127523635
0.0022348168684295316 -0.08277064366407273 -0.00047407694821505767
0.03482040387768073 -0.079406493300357 -0.004032133832350021
-2.6245452664861477 0.07047590752548524 0.2851691099881396
2.4810539767521504 0.3067824628501423 -0.2666301293005856
-0.034517900018005275 -0.0794064932945821 0.0037859280746259457
2.697987312377508 0.07047590752066256 -0.2972620640587925
-2.57854897662273 0.3067824628498494 0.2835661057988467
-0.0012639338443121786 0.21533188125590105 0.0004782546397138004
-0.07977620772647129 0.260746346213457 0.009526240302074957
-2.9509957847738164 0.5712389553458022 0.3280098263827718
2.1758126750895985 0.9868847883037771 -0.23709547420453297
0.07368973587717277 0.2607463462250487 -0.007865234254901442
2.991337054503099 0.5712389553274676 -0.33335867962741383
-2.257566085901363 0.9868847883170518 0.2531239533422915
-0.0012823910155431823 0.13715328928927528 0.0003699098551788725
0.10911913997519818 -0.04842765302499694 -0.012351299480411686
-4.066674371145854 1.9219963309941173 0.45898323764138543
6.303484126939674 -3.1420001836782556 -0.7127220414576312
-0.1105383892490416 -0.04842765304122516 0.012447591532449693
4.062794417112281 1.9219963310200345 -0.45369137433095025
-6.29592967347459 -3.1420001836941656 0.7037584297519156
-26.11014011322667 195.49936437374197 -2.320150465484833
87.93299479817831 320.0454719076814 0.526970860862922
-18.52022321568126 79.09541624886883 -4.4811282582761525
-177.07778629415432 65.36985082270868 -1.173451532771312
13.477932465537995 -4.8776412831872245 0.20445316469097854
37.452327501830325 -10.575992885823078 0.24321074860013855
-115.7680308307554 143.06721342589057 0.10825520654122547
83.57467596145295 199.31361077934596 4.776051633013944
7.37053090351508 7.190356428391787 1.530610477041833
-124.30761720066013 -95.01444543900456 0.3267150841489109
72.43543354610134 -210.79592064421794 4.245222288301375
-33.18699005448194 -139.07336375077455 -2.1664044740541497
-3.3708495922821258 1.7279015897262904 -0.14660324803535282
60.646468017232436 33.0028372931835 -0.4429799442335115
13.35326019470774 112.06468001839735 -2.617886656745118
13.213167821028964 -289.39239111081326 1.521171971278492
-89.85835383497404 -382.0428216832521 -1.9107093476755546
95.53192449470463 -180.66778656803064 2.680592002400229
160.20357403665932 -215.456794166073 -3.154335228657613
-87.8420193243976 320.04547190774827 -0.4681541986550023
18.699625545925716 79.09541624915946 4.498410643425489
177.0400288772565 65.36985082282844 1.168587443290906
-39.288029409851575 -10.575992885869073 -0.3889511314211603
116.23998300006471 143.06721342587164 -0.05198773497345169
-83.76337791135352 199.3136107792798 -4.789697067838435
121.45704064518401 -95.01444543900324 -0.5623354372740761
-72.25287428970674 -210.79592064423954 -4.184432399013971
33.1581985959694 -139.07336375076974 2.147025782795918
-63.20646986580936 33.00283729319099 -0.2613549254737914
-11.987023436780833 112.06468001840658 2.7940746820287385
90.22645725397089 -382.04282168318855 1.9533962702291803
-95.50099065918022 -180.6677865685087 -2.67897367782727
-160.2180077683884 -215.45679416601885 3.1532728506614998
-0.8021780935698006 100.06311053974612 -0.1753396704036268
24.103668851527022 118.45206238111396 0.9623907664881264
-35.166189207497226 64.5002739395422 -0.1768734488103366
-39.96371041438955 80.53748847342148 1.6754063388796314
-23.626083493481797 118.45206238098176 -0.9121844685481558
35.1785620602421 64.50027393976283 0.17577507192361916
39.95125609049625 80.53748847325681 -1.6761783291487522
0.3886480649882725 3.0392647109916577 0.037205831774347935
-1.1689769699227992 1.7574465676385145 0.06142683239815691
-0.34620050001616554 2.7675879118393425 0.1385325543482787
0.8275726196109976 1.7386761297712061 0.08095295911173006
1.4171712572510333 1.7574465676901145 -0.03983317112078247
0.32288554403416175 2.767587911855938 -0.14250556243179763
-0.8302844257044167 1.7386761298443596 -0.08060866929363937
-0.0009844501468056108 1.7858721544997376 -0.0018613148760882063
0.0589800197491433 1.912385696521901 0.008013914417056121
-0.522454262176578 1.1881443406834946 0.010456559044437843
-0.5737521281158282 1.5574411717992345 0.02677072475418649
-0.050934030329877415 1.9123856965059636 -0.008863745846346778
0.4853568418113897 1.1881443406652086 -0.014736988916878205
0.5841204953098821 1.5574411717723344 -0.024948041115912603
-0.0025160373628299957 -0.10198870327385207 -0.0003400729902529564
-0.010269286605449589 -0.01848122665399545 -0.0022240536244508805
0.06757337507157171 -0.4541770075561328 -0.0029054647666091255
0.05089487370506064 0.3197300296796708 0.0030770465724760027
0.005315132687369514 -0.018481226646020744 0.0017641566713495573
-0.0835934218716413 -0.45417700755829904 0.000891564235534738
-0.04242147777989296 0.31973002968642394 -0.0014948760422032572
-0.00019373431882482468 -0.014305679596361923 -2.055151081290367e-05
-0.011052448171516328 0.050520824451136814 0.00045550933998288044
0.07442193108613704 -0.30826174890950186 -0.0026802549885801856
-0.007335186980953811 0.21207133101792958 0.00249928588617901
0.01236049157469972 0.050520824450978566 -0.0002536305394773433
-0.08056151945900078 -0.3082617489100535 0.0017024597490840803
0.008645263126787827 0.21207133101566894 -0.0018803614406639442
-6.864748445227396e-06 -0.004070466015611254 -6.996631116055012e-06
-0.01372712079234802 0.040990766165627204 0.0004984206016723192
0.0648758441209339 -0.18178145492828038 -0.002536495535329419
-0.03951235560031238 0.12422525004891365 0.002008023711099282
0.014480753219196882 0.040990766170790484 -0.0003791967652642913
-0.06757598976404747 -0.18178145493394218 0.0020143190283593453
0.03938327898592208 0.1242252500528242 -0.0017274119052388026
-0.000151421077097504 -0.01137204822790734 -1.889964648723476e-05
-0.005286318277326986 0.010238713616682217 0.0001955012150963781
0.07900814377577522 -0.15354310001571336 -0.002815643314460466
-0.061341803156546845 0.07912855261894657 0.002337849451084881
0.005246444731866547 0.01023871362126344 -0.0001751920838367281
-0.0811733471539256 -0.15354310001931293 0.002394138639287775
0.059253757472612564 0.0791285526192755 -0.002255171428144776
0.000343488739057444 0.009211284636811057 2.6570789259821437e-05
-0.0009207188704316096 0.013627200446872068 6.91618416500381e-05
0.09064733310515989 -0.10325959673907702 -0.0029547266739671954
-0.08601382892663967 0.06097629347483351 0.002803216283328261
0.0016024898385250707 0.013627200448852898 -6.904418267739607e-06
-0.0916142296948339 -0.10325959673877766 0.0026979066900637214
0.08406567975507999 0.06097629347244042 -0.0027580649187045497
-0.0009258695787795402 -0.0345830690156232 -8.263175748812286e-05
0.0017390530893436303 -0.038447018477206316 -0.00017748151018107868
0.10320816691922925 -0.15019735691724098 -0.003429958656582027
-0.08153810405799533 -0.07931110507412599 0.0021031129143452964
-0.00396577306550949 -0.038447018468894256 -1.415154518887623e-05
-0.10823456121399504 -0.15019735693127598 0.002873341737803608
0.07346074164667762 -0.07931110506515181 -0.0026591471839799833
-0.0005569160418461092 -0.022878910740095734 -4.816036543709586e-05
-0.00381116667660761 0.008665223326459899 0.00014030391274390678
0.13955510724016715 -0.33900010713596584 -0.005046438311321954
-0.21621533130763138 0.5450049196209383 0.00791047629753702
0.00427784020523364 0.008665223332279566 -9.340539261785654e-05
-0.1558681816904321 -0.33900010714309825 0.003550849771174035
0.2431122936617577 0.5450049196228635 -0.005444500962176895
41.26038429054839 319.31662720464976 -1.9435768864981735
151.1885104834078 533.5802833016274 -2.697210623890357
159.02181071336557 333.7122427298136 -7.430466500636879
508.82498082814067 549.92698521578 -30.125791938332746
-217.35997940012672 95.70908683788265 12.472039420724078
-256.3127306466503 -249.04673644507156 23.755274532016593
-165.6824941673639 -81.03334461913076 18.500066676769432
-350.8838706148816 -177.4047485567773 27.99400285192928
151.79929270798488 -188.02780298666872 -1.5287986575714405
103.21552982587383 149.1932167414934 -14.301864994357908
158.75298261613557 39.71102789717202 -17.64783362781885
290.25644449261927 53.76374027241235 -24.058712636099646
185.61958714424495 94.71821022867451 -33.02807168238537
49.98134870124844 -67.26306651117109 0.7406151305138844
-175.07510750646145 -40.32847385583645 12.821331901247557
-37.41198748497813 -444.6794651501052 8.728608286382975
-92.29951930974566 -517.2664744157131 0.01571149363637944
-127.63585681473042 -374.59801750830246 3.836205171334897
-670.8415157850933 -583.8772307760448 43.13490793201082
-135.90043680891407 533.5802833013165 1.0172614147267303
-156.7349597127018 333.7122427302162 7.080372997866686
-509.8993064825876 549.9269852162292 30.2818565734489
249.9739225884909 -249.04673644524755 -22.52467555408294
175.04814796602304 -81.0333446192338 -19.796648174289725
353.3560096860047 -177.40474855697255 -28.438882710367785
-83.20861847708063 149.19321674157845 10.242430631162035
-131.2812530405131 39.711027897231524 13.582185481079
-300.70759515670096 53.76374027246794 25.620379530673915
-304.9737686641085 -67.26306651117751 35.03612695373051
200.19954157253875 -40.32847385586977 -15.850895309564358
97.1937613613173 -517.2664744145138 -0.648311614738315
127.54547567428051 -374.5980175088974 -3.8361581182586524
670.916342514387 -583.8772307764941 -43.14787311559581
31.035374239382463 138.0928931699894 -6.094085211311231
42.99530474758593 140.1170168658664 -3.2520435043800338
63.920749263908135 108.48393501221112 -4.590512858010756
246.80165337243795 167.0944417272506 -17.6873624300252
-36.59954681246209 140.11701686491122 2.3366213277039067
-64.44494344257721 108.48393501245192 4.643660824452378
-246.7414773066368 167.09444172746203 17.68027618426935
2.7143647189274245 1.2482187843117927 -0.42555359600157555
2.708641763424174 -0.24706538536768555 -0.5894373387368644
10.050472217175683 1.463880006055319 -1.0389205985433796
4.006319641489107 -1.6914875617182423 -0.5268653538298058
-0.017009502945194637 -0.24706538521543459 0.14707271465412902
-10.830122435548754 1.4638800061436177 1.1370023242112468
-3.7665179640161335 -1.6914875618311584 0.4945264343829994
0.24508556263426826 2.535356367911412 -0.06150046017454571
-1.341815445498002 2.2841204121487406 0.11970960077806922
4.772910942601712 2.5876307527455014 -0.33941970959727685
2.0126015910111708 2.018848241015244 -0.15959576440555265
1.2660290650307113 2.284120412168016 -0.13065142354815443
-5.480321610245252 2.5876307526742437 0.4393040037414099
-1.5010073778981963 2.01884824105186 0.08730083441408704
-0.06839099633218892 0.013100189501627264 0.00917666785989022
-1.1939128475628047 -0.16769424940806024 0.10603700829451235
4.459576061846236 0.3518672117010751 -0.35899336744551963
-2.285167768832296 -0.5094369371566357 0.1516114975384358
1.15415846650404 -0.1676942494079805 -0.09995278578698784
-4.861377576990264 0.35186721169736807 0.41570669286952505
2.8206639133227434 -0.5094369371426211 -0.23028553190014506
-0.004257051533961667 0.00945959956572744 0.0006608656867414774
-0.5529301225602613 -0.04699909208511988 0.046316692876568415
3.465095805280872 0.25612239333164727 -0.291857768699608
-2.3126507238209606 -0.3928646340966651 0.17680062054564052
0.6001199910750253 -0.04699909207578003 -0.05281846171804827
-3.7133388190336043 0.25612239331903836 0.3265010407575546
2.6340149458940196 -0.3928646340943455 -0.22493449261058723
-0.0036392288006111225 0.009462375810280274 0.0005337202289356624
-0.47335184266465685 -0.027626747552152428 0.04089762120192482
2.3557060766273845 0.17405651067341005 -0.201834897071994
-1.8059469876285852 -0.23044035270088667 0.14944400302979272
0.503326832184178 -0.027626747548335686 -0.04507055793136885
-2.522197174061678 0.17405651067303096 0.22567176181796544
1.9908430559263575 -0.23044035269700938 -0.17732949152955388
-0.00270314160101629 0.0015815937105423835 0.00033437889657733416
-0.17859940460329915 -0.0202641792674375 0.015220363942607465
2.2776032045428396 0.12838740237471957 -0.20000310608045954
-1.9200482536026802 -0.24536899351962205 0.16361859450536723
0.1938932886194473 -0.020264179278847987 -0.017544051882734755
-2.4106449639397742 0.12838740238748503 0.21895757708092745
2.098841140670015 -0.24536899352931152 -0.19149109523788352
-0.004304596332234702 0.022202607626403123 0.0008164233852569018
-0.025718809094678694 0.015466785809564116 0.002647738734666349
2.15811861658883 0.10136132696364565 -0.1936924498182702
-2.0832817678297557 -0.19494666962982146 0.18396241273876476
0.02306907199555069 0.015466785804572334 -0.0019098556286133218
-2.2596093073110866 0.10136132697072649 0.20844202277966528
2.2286785590981744 -0.19494666963120696 -0.20669557753517928
0.004811488083994379 -0.04502574952727248 -0.0011846610132199675
0.06065807462875623 -0.05861981145062803 -0.006698016850236575
2.240792010945512 -0.0449879412582148 -0.2068402029129566
-1.6718004763713141 -0.29995465376689096 0.14725650792739847
-0.04473705024889785 -0.0586198114448467 0.0031994971895332553
-2.28194439658579 -0.0449879412584551 0.21049784170499855
1.814750017695341 -0.29995465376988867 -0.1726655018006125
0.003658582783158119 -0.025965733113663004 -0.0008191892543462463
-0.07686708360070416 0.010201844596934602 0.0072974942190795825
2.9797000809794025 -0.35698390547779063 -0.2828857309242955
-4.584406799573115 0.601476885284256 0.43650476210580086
0.07740433101064897 0.010201844591428774 -0.007132145512214962
-2.9209949314452808 -0.35698390546787023 0.2659781699410377
4.4861225870001675 0.601476885279542 -0.4083417600294739
623.0910496783504 938.5062126420748 -85.86862143405689
2406.7084573284696 3267.7975397767195 -220.82602725355355
2174.4796872442057 2263.7365216978933 -115.69084477391041
4239.125195691082 3473.10855126045 -66.03813430535968
-1356.9533132758852 -1154.971061715146 167.3879155715425
-582.4886626066932 -948.866252506037 50.42898438538839
-904.3195200685387 -523.7912703418106 62.21423704656454
-1882.4622796622855 -1352.797114175967 18.02710168072941
906.3674057458145 1141.4524918356842 -97.94929041915641
-1586.015563314026 -679.6063597971458 161.26542821519126
659.1919666512523 173.4301160949189 -71.6140378858519
787.0366322659864 381.7389813505552 0.8722188471865092
834.0889312663707 -1182.7605550642916 -128.6280585359866
1615.4687059728458 1269.2997697588078 -161.84363265728737
-442.0720589112385 -265.45582526805345 57.34244326441548
-487.68445507195827 -709.5216895792096 75.29331837902447
-2845.0700022853125 -3644.623225450343 272.5066038151644
-2799.082465517507 -2944.5247686672806 151.417455530012
-4841.318782641679 -3800.418713078932 87.43786395952023
-2333.9310291119496 3267.797539776805 211.2215215413743
-2163.877042769634 2263.736521700174 114.18128732546666
-4244.169371009081 3473.108551262883 66.75223194508256
558.6136542870355 -948.8662525080751 -46.87118334962084
948.3117391352007 -523.7912703423932 -68.32538310771929
1893.9084152935459 -1352.7971141769015 -19.819427110401
1680.596312583036 -679.606359796333 -176.9305274424221
-530.0387053997171 173.43011609533937 53.08509780781399
-836.1295079764718 381.73898135083624 6.1996799623953525
-2826.7732304443784 1269.2997697587352 332.5999104599468
562.45446821828 -265.455825268299 -73.40405268511515
2866.665051909836 -3644.6232254443685 -275.4215639056345
2798.639397867314 -2944.5247686709213 -151.36749020007053
4841.669219013198 -3800.418713081991 -87.49348905410857
217.04171284012364 282.1882931609057 -33.095014945078994
1040.186803024255 1214.2047318901261 -102.52974989092701
1095.5776666791241 1068.01631646722 -61.84500879258558
1609.5726630857607 1217.910248006464 -34.495745801379165
-1011.092455104585 1214.204731884303 98.47202977618375
-1098.0291625604661 1068.016316468822 62.16462044578919
-1609.285083831489 1217.9102480084182 34.454846404883895
9.864840159714301 33.6100093858166 -1.3989544537339265
34.28891798946489 20.713678680822945 -3.6020748966801683
63.37263988802047 44.46650510922305 -3.370302558491735
25.10786097679404 18.50033741139138 -1.8846067714719665
-21.681905526507197 20.713678681802648 1.7708436719919256
-66.995652065071 44.46650510977499 3.862336251903117
-23.97812151941317 18.500337410441976 1.7262889589091786
1.9080153293571598 5.53003590535468 -0.3063781728450152
9.968725649601668 12.20253661906037 -1.3682831307279082
25.88817462664369 21.1254015433052 -0.7034064096191269
24.41616305008626 22.675383172025793 -0.8986270180170455
-10.099769893650718 12.202536619214834 1.3580535894118118
-29.203679358427056 21.125401542833874 1.1665168241961943
-22.0102686487897 22.67538317226149 0.559591198095434
-0.33088340082338524 -0.8867946956912554 0.04570560455617671
-3.622349803933581 -2.2630737892178585 0.0763360175743923
8.485703507520737 1.743299704905537 0.2663639677453049
-0.5720772655538633 6.383975623249483 -0.45641032519141805
3.451928413225715 -2.2630737892161297 -0.05234188911661735
-10.392232499792636 1.7432997048827432 0.000771136080812112
3.093595213827329 6.383975623363348 0.09637429675770882
-0.02008076900893212 0.13640674020196147 0.002895464650620548
-1.2599870108661086 -0.11943163906533309 -0.013567973888682631
7.831283366646949 0.8053217753932866 0.08193208384653582
-3.3660312832429526 4.496779412643886 -0.2432938384875533
1.482554897287905 -0.11943163900361044 -0.01749358069382459
-9.00725386344175 0.8053217753000128 0.0829410931127933
4.878638294334037 4.496779412657911 0.02533019666127479
-0.017077901922692255 -0.08775218684451402 0.0024463375563377413
-1.1784174786122485 -0.13600327036882473 -0.002536341860291975
5.74729096882511 -0.3213334474658991 0.027749614570203664
-3.920412876403728 2.477848607222052 -0.07566923366760873
1.3206015549482966 -0.1360032703578995 -0.01738101129490908
-6.533963343321653 -0.32133344744879205 0.0836594697255706
4.789999527697054 2.4778486072459796 -0.05007079834098156
-0.012954902591273609 0.1201613125878311 0.0017397557726905129
-0.43977627171617706 0.19171730233469558 -0.0026281299269122023
6.062063616870467 -0.11396001392965856 -0.019060956904571914
-4.773179139720804 3.3372425545583475 -0.030320452791154577
0.5116135643108078 0.19171730226514763 -0.007789577022885219
-6.69117944386593 -0.11396001384942848 0.10802016738331749
5.611427082254581 3.3372425544881983 -0.09254996983660249
-0.01973403818447947 -0.48150353605003027 0.003156125651390182
-0.08382672215067413 -0.4164429580676363 0.0027343548732620604
6.2130576166924465 -0.4201672617240665 -0.061061681083409626
-5.831611499153265 2.7350750878087995 0.03199833265091167
0.07240571153457777 -0.4164429580956251 -0.0004722302279219401
-6.692156746901167 -0.42016726168606616 0.1293467367603288
6.513175762240434 2.735075087806732 -0.13204282592528718
0.021219928954624833 1.1459819255458696 -0.003896973783024769
0.20824173553428027 1.4244456766693223 -0.009981477696832818
6.849923188326546 2.530661227479478 -0.11361346520726082
-4.913504332515749 6.111526812047917 0.035948871215981795
-0.1367223461566516 1.4244456767029663 -0.0023427887634232957
-7.051345039873004 2.530661227467802 0.13814881880813326
5.5742223827241215 6.111526812038786 -0.13847783927912757
0.016403636809373453 0.7630522056971051 -0.0028575478855654827
-0.24729127663507489 -0.2187035022851102 0.005270084718442042
9.463628014372922 10.10787172076119 -0.2123582338437702
-14.632547154911185 -16.449842257694783 0.3354301917593983
0.25060290173449173 -0.21870350234464864 -0.005308950691303678
-9.212151337405293 10.107871720855861 0.161441652213205
14.211215850357222 -16.44984225774062 -0.2504216368759291
2246.730957014574 5467.442638105068 -301.8576276183628
5951.823184339169 10603.167696646366 -427.6447498713274
2624.889737936836 5485.1370924850025 19.711373916394567
4985.686101720397 5444.616731547024 131.38197391399032
-30.18186373525839 -50.178099920513766 -20.775466614245428
-2025.7865713644117 -2194.7516477483996 215.02047226781363
-1456.7124347579418 -2507.658652687578 5.449094930274161
-1529.032507387989 -3263.5735256902144 -216.34224470486149
-2302.4869734291956 -4397.53844923827 360.48456991201135
-70.08964972992123 -400.2610644122017 -84.18912753577618
1330.0717119804399 1612.7269814837375 -116.92073926391187
426.63220881793774 2071.652919180682 225.34665450850363
3845.281090968301 3349.154623203948 -577.031075580046
-42.5751743547909 896.3000762499162 115.95823143043722
-210.25773969901186 -1103.7703412588198 54.05977894116704
-3225.536544889736 -7950.4837090514 454.33968008037044
-6956.812309358915 -13574.168096024403 442.4696737609859
-3822.992161124782 -7103.6304226754655 -11.874548953637378
-6434.342205501443 -7552.173168011691 -245.48537728889363
-5884.0847865730675 10603.167696644934 417.56995604545386
-2593.814673388328 5485.137092493915 -24.307806696204977
-4999.240134200778 5444.616731552506 -129.37048003559778
1924.7886006207254 -2194.7516477516356 -199.9422793766968
1556.3695813386748 -2507.6586526897086 -20.195119271433303
1585.669770665972 -3263.5735256924436 207.84217646726947
677.3226331776624 -400.2610644115595 -6.902137486889412
-950.7891020468961 1612.7269814848755 60.42510022487517
-575.1718400877096 2071.6529191811446 -203.20777852992921
-3031.8585514756583 896.3000762502204 340.7993878598937
374.45565901024895 -1103.7703412593435 -78.05476742576406
6987.967801612693 -13574.168096009207 -447.16255958968543
3824.528981575821 -7103.630422689563 11.65410038814385
6436.092120959388 -7552.173168017298 245.22071976045018
1209.8461273137425 3246.856355825313 -173.5984628912192
2402.5854521727506 4915.227857739247 -141.79897548341316
1625.3387334472118 2942.8598243053834 16.054664533816382
2283.044152563358 3031.3852631611094 113.11973117828373
-2334.5124286777586 4915.22785772519 131.68290521665895
-1626.542575187871 2942.85982431222 -15.866962753487602
-2282.4428328132303 3031.385263164559 -113.21259179953755
21.947115746548008 205.34210660302682 -3.4382278567328806
63.87597565114387 137.41323570361976 -3.8709973485954436
116.0461977963795 213.19870861835182 5.005777931429678
56.69799641796769 130.76395120638458 4.057178408209781
-19.497864931208795 137.4132357060511 -2.675553978176259
-121.88171075360583 213.1987086191652 -4.135526976834545
-54.1069024908688 130.76395120375506 -4.444453263539086
13.917561805256259 55.676444384816485 -1.9995233244604727
29.508032523502006 44.08897891068797 -3.5846897932125747
36.73650739760147 73.72120975819351 3.7335313600499664
38.82227919599041 60.725432052388754 0.27814909801331733
-23.838457409915332 44.08897891099263 2.7663521216445726
-44.69753287971385 73.72120975706368 -2.5550601187363977
-32.73871237628099 60.72543205347612 -1.1827364271802172
-0.720484990308403 -1.9765018604740354 0.10597990470579821
-4.7502348169024575 -14.51217855024519 -0.8346553834439714
7.160302776410591 23.764211240469404 4.21099480531842
4.030889671244462 20.702051080609067 -2.5628881019648277
4.315035431215362 -14.512178550197536 0.89972712732954
-11.884710698410792 23.764211240419748 -3.5122719347799465
3.157223853533978 20.702051080751673 1.4938465961984966
-0.06430422156483354 1.0814542403166374 0.009523136602700289
-1.275482991569631 -2.3831429233170645 -0.5124616818660019
7.8721046483483414 14.669628818795129 3.1824996880264536
-1.167542021244192 14.710080759861743 -2.424641154848583
1.7919312863085766 -2.383142923237717 0.4358189007594139
-10.740839497281838 14.669628818651043 -2.7570193130733127
5.773489828422627 14.710080759881052 1.7385744660702642
-0.04911873817942584 -0.26141975074412493 0.007324688456543308
-1.2578877176768566 -1.9802602761043195 -0.4341554261033281
5.9273352305192155 4.328485586222958 2.200601590646963
-3.347488410357585 7.9918561864000095 -1.803769907998429
1.6024969320779683 -1.9802602760907604 0.3830652491129072
-8.016861812457153 4.328485586312898 -1.8900749242221095
6.056984933659333 7.991856186404112 1.3998992382560553
